1360 200
的 0.209092 -0.165459 -0.058054 0.281176 0.102982 0.099868 0.047287 0.113531 0.202805 0.240482 0.026028 0.073504 0.010873 0.010201 -0.056060 -0.063864 -0.025928 -0.158832 -0.019444 -0.144610 -0.124821 0.000499 -0.050971 0.113983 0.088150 0.080318 -0.145976 0.093325 0.139695 -0.082682 -0.034356 0.061241 -0.090153 0.053166 -0.171991 -0.187834 0.115600 0.219545 -0.200234 -0.106904 0.033836 0.005707 0.484198 0.147382 -0.165274 0.094883 -0.202281 -0.638371 -0.127920 -0.212338 -0.250738 -0.022411 -0.315008 0.169237 -0.002799 0.019125 0.017462 0.028013 0.195060 0.036385 -0.051681 0.154037 0.214785 -0.179985 -0.020429 -0.044819 -0.074923 0.105441 -0.081715 -0.034099 -0.096518 -0.004290 0.095423 0.234515 -0.138332 0.134917 0.082070 0.051714 0.159327 0.061818 0.037091 0.239265 0.073274 0.170960 0.223636 -0.187691 -0.206850 -0.051000 -0.269477 -0.116970 0.213069 -0.096122 0.035362 -0.254648 0.021978 0.071687 0.109870 -0.104643 -0.175653 0.097061 -0.068692 0.196374 0.007704 0.072367 -0.275905 0.217282 -0.056664 -0.321484 -0.004813 -0.041167 -0.118400 -0.159937 0.065294 -0.092538 0.013975 -0.219047 -0.058431 -0.177256 -0.043169 -0.151647 -0.006049 -0.279595 -0.005488 0.096733 0.147219 0.197677 -0.088133 0.053465 0.038738 0.059665 -0.132819 0.019606 0.224926 -0.176136 -0.411968 -0.044071 -0.120198 -0.107929 -0.001640 0.036719 -0.243131 -0.273457 -0.317418 -0.079236 0.054842 -0.143945 0.168189 -0.013057 -0.145664 0.135278 0.029447 -0.141014 -0.183899 -0.080112 -0.113538 0.071163 0.134968 0.141939 0.144405 -0.249114 0.454654 -0.077072 -0.001521 0.298252 0.160275 0.085942 -0.213363 0.083022 -0.000400 0.134826 -0.000681 -0.017328 -0.026751 0.111903 0.010307 -0.124723 0.031472 0.081697 0.071449 0.011486 -0.091571 -0.039319 -0.112756 0.171106 0.026869 -0.077058 -0.052948 0.252645 -0.035071 0.040870 0.277828 0.085193 0.006959 -0.048913 0.279133 0.169515 0.068156 -0.278624 -0.173408 0.035439
。 0.128825 -0.267995 0.000795 0.263639 0.097538 0.010807 -0.028897 0.117577 0.156264 0.188688 0.039535 0.003052 -0.006556 -0.000542 -0.029001 -0.077706 -0.032283 -0.143411 -0.077546 -0.190037 -0.133469 -0.022468 -0.072961 0.144973 0.098850 0.084037 -0.190143 0.088755 0.138181 -0.105819 0.017681 0.097694 -0.041753 0.067210 -0.168004 -0.220518 0.109195 0.213823 -0.257998 -0.077525 0.020666 0.093258 0.479364 0.118419 -0.075531 0.027833 -0.218220 -0.606599 -0.070421 -0.199476 -0.233392 0.043417 -0.329303 0.209230 0.076914 -0.104362 0.062803 0.135248 0.140913 0.004518 0.025996 0.098697 0.151008 -0.097791 -0.107083 0.031974 -0.128378 0.083871 -0.084132 -0.081561 -0.130019 -0.000076 0.044137 0.141331 -0.015837 0.040789 0.059898 0.090438 0.109648 0.057426 0.018093 0.301312 0.052632 0.235123 0.242908 -0.095973 -0.095958 0.030708 -0.384714 -0.164777 0.173542 -0.068162 0.008059 -0.271924 0.051049 0.104490 0.010147 -0.105521 -0.127305 0.166114 -0.088172 0.226118 0.063335 0.109702 -0.240658 0.222202 0.038648 -0.355815 -0.015869 -0.118660 -0.072290 -0.113268 0.022802 -0.181717 0.042459 -0.112042 -0.146667 -0.162785 -0.164891 -0.124024 0.114017 -0.279552 0.043898 0.119786 0.074259 0.180340 -0.151963 0.054344 0.062367 0.081112 -0.201022 0.007162 0.285948 -0.080341 -0.373533 0.010599 -0.068789 -0.048280 0.024877 -0.023046 -0.260779 -0.348213 -0.316790 0.094536 0.131866 -0.186581 0.250213 0.002131 -0.133212 0.041250 -0.022561 -0.120896 -0.115173 -0.136738 -0.106566 -0.004902 0.111645 0.065397 0.250295 -0.107772 0.364187 0.091516 0.020277 0.247552 0.125857 0.037309 -0.204360 0.228403 0.029138 0.095838 -0.000847 0.018618 -0.083734 0.204566 -0.044542 -0.150615 -0.023076 -0.048712 0.146612 0.015543 -0.081624 0.049204 -0.175686 0.155870 0.020196 -0.102833 -0.046915 0.256491 -0.039505 0.110278 0.273165 0.062938 0.050126 -0.091656 0.221263 0.245667 0.096496 -0.286896 -0.273779 0.031194
了 0.257969 -0.288066 0.105582 0.281781 0.262464 0.024700 0.201691 0.005893 0.189025 0.123702 0.000702 -0.024353 0.074768 -0.120963 0.053227 -0.115575 -0.004054 -0.215095 -0.157094 -0.259438 0.062279 0.142544 -0.057884 0.149006 0.142659 -0.055425 -0.023676 0.048273 0.274754 -0.119763 -0.068765 0.031547 -0.045737 0.171814 -0.255463 -0.086406 0.171091 0.073908 -0.288000 0.051408 0.014997 0.005331 0.401295 0.095939 -0.045079 0.089809 -0.274839 -0.682658 -0.140976 -0.104340 -0.260310 0.023253 -0.258755 0.066476 -0.121786 0.001883 0.101805 0.168083 0.184144 0.069670 0.060302 0.190894 0.035508 0.005831 -0.160862 -0.194421 0.027660 -0.004459 -0.094092 -0.127693 -0.151391 0.004516 0.176035 0.156662 -0.035896 0.040939 0.056237 0.105161 0.208659 -0.029048 0.050157 0.265578 0.121959 0.337101 0.153380 -0.229313 -0.225776 0.144097 -0.110946 -0.118999 0.063307 0.043647 0.038288 -0.268226 -0.166147 0.131352 0.087143 -0.138708 -0.125388 0.124644 -0.029785 0.235381 -0.140240 -0.022642 -0.285102 0.207541 -0.066322 -0.421221 -0.050854 -0.180806 0.063572 -0.221671 0.144535 -0.106335 0.039128 -0.323642 0.136248 -0.268427 -0.005231 0.022319 0.100253 -0.346457 -0.058811 -0.041238 0.045793 0.122920 -0.153493 0.146689 0.018370 0.121537 -0.134108 -0.041995 0.198174 -0.130834 -0.339254 0.032741 -0.095624 0.119803 0.061630 0.166394 -0.330792 -0.224072 -0.270991 0.125234 -0.057835 -0.233979 0.228011 0.050660 -0.160570 0.180151 -0.083350 -0.156653 -0.135692 -0.145908 -0.096677 -0.066022 0.088564 -0.045435 0.054121 -0.357914 0.448524 0.141443 -0.094841 0.212140 0.053208 0.114341 -0.139839 0.239768 0.095185 0.049941 -0.141136 -0.093853 -0.107702 0.065235 -0.007106 -0.292004 0.048486 -0.063324 0.033387 0.068469 -0.210287 -0.039360 -0.273291 0.143838 -0.105371 -0.155323 -0.020802 0.499330 -0.100334 -0.001517 0.252245 0.093027 0.057058 0.062758 0.277739 0.240228 0.184851 -0.348845 -0.224438 0.065580
、 -0.232738 -0.288685 -0.112967 0.243445 0.063453 -0.011561 -0.008042 0.278480 0.095796 0.181892 -0.057935 0.079951 0.125428 0.016825 -0.255156 -0.064579 0.250334 -0.001956 0.027310 -0.044554 -0.371264 0.083583 -0.022147 -0.058193 0.087624 0.092437 -0.065254 0.195590 0.049069 -0.050154 0.115945 0.059864 0.195945 0.415346 -0.115533 -0.351305 0.211141 0.419050 -0.011927 -0.133281 0.154127 0.120905 0.361275 0.238737 0.020675 0.248509 -0.457214 -0.695160 0.073428 -0.235259 -0.171847 -0.067426 -0.322873 0.045355 0.003495 -0.035630 0.083483 0.139785 0.396549 -0.317331 0.075060 -0.115931 0.259889 -0.215689 -0.269958 -0.119417 -0.129016 -0.055042 -0.134885 0.205673 0.098041 0.017878 0.349834 0.326317 -0.190929 -0.027716 0.186459 0.112990 -0.105028 -0.338298 -0.033512 0.362206 0.131871 0.267529 0.199675 -0.083040 0.178176 -0.017078 -0.048815 -0.264116 0.308941 -0.101069 -0.033861 -0.300839 -0.038865 0.123880 0.077158 -0.102373 -0.234012 0.206596 -0.271171 0.355674 0.226836 0.271766 -0.140208 0.333076 0.049434 -0.232454 -0.198579 -0.282786 0.146072 -0.181280 0.052588 -0.238193 -0.264306 -0.197291 -0.121021 -0.019134 -0.134523 0.124645 0.063116 -0.529543 0.276034 0.221463 0.129541 0.249353 -0.156155 0.058278 0.134928 -0.089215 -0.135324 0.178495 0.467898 -0.105199 -0.421901 0.065678 0.164576 -0.115533 -0.122835 -0.313874 -0.112314 -0.434833 -0.407134 -0.158788 -0.045447 0.226856 0.589111 -0.189425 -0.186958 -0.056326 0.001208 -0.191341 -0.082234 0.077402 -0.200340 0.196309 -0.052946 -0.028392 0.425342 0.082913 0.513461 -0.038077 -0.002634 0.191342 0.266861 0.092981 -0.107972 0.214609 -0.247476 -0.031515 0.036883 0.108790 -0.013948 -0.064460 -0.093925 -0.234909 -0.289582 -0.107822 0.319905 -0.051341 -0.303210 0.078185 0.073010 0.140941 0.177822 0.158210 0.134216 0.113107 0.010003 -0.131399 0.231865 0.280990 0.148913 -0.318607 -0.000751 0.380837 -0.014786 0.199341 -0.243304 0.048623
“ 0.122462 -0.236367 0.083894 0.054253 0.076510 0.101018 -0.157237 0.032625 0.010705 0.285742 0.108899 -0.089643 0.093323 -0.072528 0.173572 0.032265 -0.144413 -0.382213 -0.127190 -0.104082 -0.112731 -0.019033 -0.153905 0.057671 0.141809 0.141354 -0.099416 0.046555 0.015345 -0.005729 -0.086419 0.047950 0.022829 0.175444 -0.244222 -0.108688 0.008861 0.206845 -0.368806 -0.191608 0.015095 0.131515 0.356959 0.152526 -0.127977 0.035397 -0.333871 -0.444046 -0.084535 -0.072250 -0.184907 0.261136 -0.224213 0.023162 0.042897 0.007341 0.218563 0.251269 0.068582 0.004821 0.049429 0.211055 0.167730 -0.103785 0.165069 0.176739 0.032481 -0.120746 -0.069707 -0.136771 -0.080435 0.045660 0.316021 0.011224 0.111150 0.097139 -0.042860 0.215534 0.075728 0.158713 0.133570 0.407183 0.081891 0.175441 -0.023760 -0.047137 -0.011409 0.098810 -0.290375 -0.232262 0.156042 -0.249738 0.054919 -0.149459 0.122781 -0.075528 0.044226 -0.070409 -0.180491 0.041084 -0.058707 0.266652 -0.023937 0.251588 -0.414041 0.582360 0.059408 -0.595803 -0.177864 -0.080663 0.086218 -0.240464 0.239131 0.034891 0.117690 -0.200251 -0.004631 -0.234003 -0.200123 0.003599 0.233423 -0.207720 -0.041890 0.002190 -0.123027 -0.018789 -0.022032 -0.012981 0.060304 0.168908 -0.179670 -0.056837 0.255375 -0.233489 -0.502085 -0.165754 0.002228 -0.057791 0.026687 -0.165600 -0.197780 -0.270278 -0.211250 0.030570 0.123118 -0.271800 0.122304 0.059079 -0.165242 0.095742 -0.247362 -0.288905 -0.059444 -0.239531 -0.227575 -0.004750 0.154330 0.027113 0.078265 -0.248037 0.560899 -0.039299 0.147028 0.121306 0.100932 0.055226 -0.186161 0.149411 0.092626 0.060446 0.175370 -0.078933 -0.060286 0.281467 0.068393 -0.075060 -0.251365 -0.156435 0.082520 0.124177 -0.067274 0.136409 -0.135146 0.263874 0.070770 0.162158 -0.077261 0.308476 -0.091539 0.126403 0.067644 0.045887 0.147458 -0.117867 0.019049 0.425965 -0.014370 -0.253605 -0.113628 0.106659
” 0.108815 -0.241997 0.082369 0.063541 0.054383 0.123942 -0.167157 0.021991 0.031640 0.262305 0.131012 -0.083021 0.101425 -0.081870 0.159832 0.031488 -0.146121 -0.333952 -0.129508 -0.088991 -0.127734 -0.016296 -0.123858 0.061714 0.168111 0.115000 -0.077976 0.069735 0.043334 0.015265 -0.077503 0.059783 0.031921 0.138752 -0.256197 -0.167446 0.026034 0.181538 -0.369619 -0.187011 0.021129 0.115088 0.349497 0.162885 -0.120980 0.045805 -0.316720 -0.443893 -0.106555 -0.111270 -0.191840 0.228302 -0.257261 -0.012916 0.041418 -0.002460 0.224961 0.247112 0.084027 -0.009874 0.085379 0.192162 0.158371 -0.088699 0.148566 0.190253 0.024584 -0.098989 -0.072661 -0.133928 -0.065171 0.092618 0.285007 0.005544 0.104271 0.101575 -0.028191 0.199444 0.093800 0.179894 0.099258 0.411289 0.070870 0.171074 -0.009207 -0.035159 0.007757 0.116820 -0.299558 -0.212453 0.163653 -0.264225 0.037925 -0.155702 0.136437 -0.081984 0.046029 -0.056247 -0.187565 0.011201 -0.033462 0.267564 -0.028860 0.261291 -0.414885 0.583737 0.028150 -0.585286 -0.182570 -0.070103 0.096262 -0.212538 0.215521 -0.006936 0.079491 -0.194930 -0.012284 -0.200511 -0.196653 -0.007712 0.216313 -0.186542 -0.058861 -0.012272 -0.109852 0.005773 -0.020779 -0.012360 0.084804 0.136474 -0.159033 -0.031105 0.239932 -0.207597 -0.489428 -0.131963 -0.018079 -0.076020 0.030093 -0.139627 -0.232451 -0.261891 -0.218330 0.063110 0.140156 -0.264597 0.113596 0.087695 -0.177811 0.114217 -0.241231 -0.294800 -0.062543 -0.245346 -0.239901 -0.009816 0.146287 -0.003436 0.116481 -0.240626 0.532931 -0.006128 0.155324 0.132983 0.096058 0.062446 -0.207618 0.135445 0.088684 0.039472 0.151041 -0.089525 -0.082138 0.249260 0.088288 -0.091733 -0.241065 -0.175282 0.072563 0.103602 -0.051329 0.105472 -0.143385 0.267700 0.075299 0.177726 -0.072988 0.288345 -0.078596 0.132786 0.073861 0.051939 0.150097 -0.122646 0.033182 0.424073 0.021534 -0.266058 -0.147493 0.129246
是 0.088422 -0.220535 0.042321 0.280248 0.158567 0.022675 0.104318 0.164016 0.175014 0.483962 0.128477 0.111126 0.031500 -0.000157 -0.097737 0.247697 -0.179488 -0.240289 -0.136103 -0.168298 -0.147298 0.021108 0.120252 0.076418 0.274915 0.074118 -0.109737 0.132861 0.303832 0.025579 -0.001565 0.046626 -0.174546 0.069820 -0.233192 -0.319214 0.102713 0.376593 -0.278854 -0.190161 0.064110 0.152048 0.481907 0.112520 -0.237646 0.036225 -0.054809 -0.675327 -0.004792 -0.201795 -0.314029 -0.002380 -0.308852 0.154706 -0.015906 -0.025239 -0.115753 0.012128 0.177280 0.193762 0.064173 0.136234 0.119523 -0.144031 0.001965 -0.019349 -0.090950 0.130274 -0.212409 -0.300901 -0.271812 0.048882 0.046211 0.264830 -0.007732 0.212248 0.170197 -0.036245 0.126349 0.037053 0.014784 0.282051 0.090078 0.191075 0.188490 -0.240984 0.005043 -0.012079 -0.339504 -0.255159 0.253130 -0.122627 0.070942 -0.228254 0.148199 0.088679 -0.028714 -0.072517 -0.252825 0.140066 0.037613 0.168659 0.053629 0.064994 -0.262946 0.252412 -0.095863 -0.409000 0.020319 -0.120344 -0.248578 -0.148610 0.120841 -0.206529 0.099486 -0.144703 0.096828 -0.118727 -0.185494 -0.068001 -0.054437 -0.155130 -0.012420 0.233209 0.015379 0.168919 -0.135505 0.030401 -0.111819 -0.008094 -0.198661 -0.005637 0.229044 -0.131276 -0.294233 0.013832 -0.035503 -0.125856 -0.158669 -0.120601 -0.322779 -0.117246 -0.162126 -0.140845 0.118956 -0.244393 0.266027 -0.039224 -0.294961 0.162399 -0.046758 -0.109945 -0.273991 -0.052170 -0.081680 0.060395 0.223162 0.063811 0.086414 -0.239465 0.311980 -0.043291 -0.100374 0.136088 0.180767 -0.064107 -0.222279 0.027649 -0.062463 0.141550 -0.009524 -0.122633 0.078290 0.118104 0.068727 -0.020049 -0.064007 0.141176 0.123716 -0.040491 -0.147908 -0.171939 0.018413 0.055367 0.191712 0.042501 -0.071932 0.301518 -0.111157 0.064090 0.038439 0.139372 0.075114 -0.148898 0.236133 0.344508 0.014930 -0.195834 -0.292445 0.097225
在 0.140179 -0.210529 0.084447 0.408465 0.211370 0.029728 0.185457 0.181734 0.180533 0.366577 -0.123496 0.005413 -0.109705 -0.035757 0.076673 -0.203110 0.028695 -0.183482 -0.134198 -0.246188 -0.135944 0.114651 -0.277289 0.061838 0.051108 0.074963 -0.213490 -0.094795 -0.005998 -0.167743 0.078747 0.114884 0.029258 0.085330 -0.252696 -0.313948 0.197135 0.314020 -0.337170 -0.186204 -0.098521 -0.116725 0.555076 0.058195 -0.224802 0.024302 -0.277476 -0.622087 0.111211 -0.050457 -0.292735 -0.102340 -0.379862 -0.043842 0.088253 0.024119 -0.027338 0.213561 0.141122 0.040768 0.008594 0.186239 0.183856 -0.214558 -0.085280 -0.261180 -0.006649 -0.079213 -0.177823 -0.058194 -0.072030 -0.083107 0.180827 0.277204 -0.175215 0.034765 0.087632 -0.010528 0.241199 -0.010193 0.034417 0.167437 -0.021327 0.329826 0.052269 -0.025625 -0.287787 0.030960 -0.424025 -0.036330 0.212826 -0.103781 0.111133 -0.200861 0.193314 -0.028584 0.127177 -0.101817 -0.224835 0.206509 0.067936 0.336232 0.122407 -0.029962 -0.129869 0.133404 0.015009 -0.433207 0.058028 0.150409 -0.104637 -0.249578 -0.019712 -0.147257 0.156090 -0.329590 -0.044553 -0.159814 -0.202431 -0.105977 -0.080457 -0.335018 0.329008 -0.001287 0.030630 0.071126 -0.145978 -0.037959 -0.008835 0.048876 -0.244987 0.030354 0.176110 -0.160886 -0.201701 -0.088635 -0.097368 -0.153500 -0.033835 0.004843 -0.127706 -0.292187 -0.244355 -0.063014 0.209098 -0.161995 0.167322 0.163574 -0.097362 0.162335 -0.016799 0.016638 -0.139538 -0.093002 -0.159434 -0.049299 0.114523 0.018487 0.094815 -0.165554 0.416426 0.035351 0.045484 0.188833 0.278961 -0.101411 -0.275655 0.077192 -0.086545 0.134090 0.020310 -0.058140 -0.039572 0.139488 -0.011555 -0.085959 0.022064 0.052370 0.013617 -0.065007 -0.101952 0.003111 -0.258395 0.261667 0.192007 -0.153767 -0.079217 0.393653 -0.131986 0.165527 0.314349 0.122465 0.110945 0.182450 0.239579 0.235608 -0.010840 -0.340614 -0.124820 -0.001334
？ 0.402922 -0.300508 -0.353942 0.112653 0.106601 -0.113353 0.082613 0.140171 0.112817 0.247855 0.077707 -0.051344 0.191453 -0.080087 0.124636 0.000118 -0.109630 -0.262693 -0.150456 -0.096247 0.103140 0.295963 0.239890 -0.062971 0.094243 -0.103382 -0.310787 0.093597 0.239786 -0.026846 0.174998 0.015196 -0.042887 0.130396 -0.090268 -0.112404 0.042893 0.156469 -0.251244 -0.130730 0.056426 -0.088129 0.377345 0.284700 -0.176186 -0.033252 -0.100528 -0.658676 0.026004 0.040914 -0.207758 0.151818 -0.292712 0.050614 0.044119 0.010531 0.066009 0.186347 0.163012 0.108013 -0.000256 0.209191 -0.044877 -0.120906 0.091355 0.108375 0.174959 -0.020022 -0.003670 -0.160715 -0.279859 0.300516 0.064206 0.033851 0.165611 0.133947 -0.106854 0.096214 0.009227 -0.067202 0.192426 0.326639 0.171306 -0.134810 0.253989 -0.027107 0.067293 0.259604 -0.194291 -0.456792 0.251872 0.157815 -0.126003 -0.088442 0.071875 0.042677 0.054773 0.083258 -0.030296 0.151838 -0.057992 0.332845 -0.084175 0.195955 -0.319044 0.007457 -0.025835 -0.509900 -0.053721 0.017068 0.068113 -0.193660 -0.051365 0.099476 0.033704 -0.041025 -0.028699 -0.098496 -0.124037 -0.158158 0.436960 -0.350214 -0.012871 0.152676 -0.109028 0.169616 -0.127501 -0.109711 -0.002107 0.069823 -0.095907 0.139707 0.313531 -0.222055 -0.404225 0.004465 -0.197435 -0.189451 -0.090847 -0.040948 -0.254023 -0.296257 -0.059357 0.072567 0.161884 -0.328729 0.060148 0.026202 -0.004577 0.197899 -0.140176 -0.074980 -0.182574 -0.150788 -0.240934 0.006282 0.305283 0.082026 0.061774 -0.010853 0.364478 -0.102789 -0.092926 0.299877 0.139272 0.088865 -0.072618 0.221269 0.154715 -0.013570 0.006617 -0.082761 -0.002638 0.129394 0.075715 0.048324 -0.314485 -0.025888 0.139623 0.233152 0.067561 -0.178941 -0.075628 0.105439 0.111848 0.085033 -0.506806 0.025351 0.107564 0.208671 0.010176 0.097986 -0.227650 -0.250924 0.242192 0.433201 -0.174784 -0.609198 -0.234915 0.354191
！ 0.124369 -0.549265 -0.151302 0.267781 0.088999 -0.134536 0.036340 0.027784 0.123388 0.310345 0.250375 0.108034 0.012139 -0.109423 0.020953 -0.012851 -0.173615 -0.159119 -0.340249 -0.142898 0.054856 0.053153 0.175021 0.173003 0.336459 -0.327204 -0.082117 0.128418 0.242180 0.068666 -0.067794 0.029074 0.124266 0.314637 -0.167560 -0.099967 0.169998 0.115718 -0.137968 -0.384795 0.009330 0.040575 0.306893 0.190377 0.054860 -0.046958 -0.162022 -0.556468 -0.143647 -0.138291 -0.332283 0.128227 -0.362517 0.109860 0.208563 0.049215 0.078076 0.069577 0.045217 -0.088815 -0.039350 0.180478 -0.125399 -0.250437 0.037908 0.044711 0.169464 0.261112 -0.044192 -0.068611 -0.140744 0.101518 -0.000311 0.132056 0.042085 0.258206 -0.035954 0.087460 0.111901 0.023071 0.203678 0.508983 0.004870 0.212649 0.268605 -0.096171 -0.190733 0.269282 -0.143558 -0.257810 0.150176 -0.095797 -0.099321 -0.174600 0.057483 0.149413 -0.049407 -0.024433 -0.088270 0.211521 0.127492 0.194015 -0.115320 0.044003 -0.260578 0.168733 0.161235 -0.395774 0.026891 -0.122110 0.087178 -0.143534 0.110126 -0.070308 0.097872 -0.062732 -0.093058 -0.141587 -0.009506 -0.298059 0.150947 -0.059607 0.010907 -0.117063 0.096049 0.270224 -0.116279 -0.130826 0.110457 -0.048219 -0.016422 0.156546 0.219094 -0.149744 -0.254423 0.091045 -0.232259 -0.033408 0.007809 -0.072161 -0.359112 -0.301161 -0.056079 0.098333 0.167429 -0.423576 0.231229 -0.255908 -0.175293 0.041098 -0.127745 -0.160837 -0.245629 -0.308655 -0.093240 0.076763 0.120664 -0.211603 0.249339 -0.181416 0.454499 0.113244 -0.031488 0.248592 0.145937 0.158047 -0.197093 0.202545 0.148626 0.041890 0.100113 -0.088194 -0.057444 0.174603 0.051039 -0.026705 -0.117034 -0.212510 0.112093 0.173501 0.119549 0.043481 -0.283562 0.164639 -0.058210 0.016423 -0.112946 0.079238 0.127689 0.064587 0.057838 0.291111 0.008003 -0.293634 0.268223 0.449733 0.191095 -0.387032 -0.197244 0.092638
和 0.059005 -0.159257 -0.070609 0.333957 0.172421 0.079540 0.099425 0.248545 0.216435 0.302788 0.038808 0.000471 0.162667 0.020548 -0.210589 -0.088976 0.170685 -0.153639 -0.118756 -0.075105 -0.089003 0.063505 0.040784 0.069238 0.082064 0.065956 -0.140206 0.082242 0.090268 -0.078615 0.068675 0.063937 0.044738 0.294580 -0.234651 -0.296382 0.217686 0.195495 -0.110561 -0.050931 0.024866 0.042180 0.602511 0.310658 -0.116684 0.120940 -0.239425 -0.726953 -0.059974 -0.299482 -0.259069 -0.190446 -0.317092 0.223928 -0.037882 -0.043169 -0.085250 0.100996 0.153228 -0.038039 0.085719 0.009228 0.351343 -0.203530 -0.167267 -0.122166 -0.056232 0.056485 -0.010745 0.166608 -0.030105 0.063840 0.176671 0.228635 -0.234507 0.088497 0.174012 0.086832 0.222711 -0.027464 -0.028850 0.185663 0.137183 0.156418 0.267754 -0.139307 -0.193774 -0.156766 -0.200128 -0.115157 0.184654 -0.181376 -0.067515 -0.226574 -0.052258 0.172272 0.167531 -0.100539 -0.170459 0.135723 -0.138390 0.204449 0.046908 0.038854 -0.323665 0.256273 -0.071703 -0.329932 0.074816 0.040218 0.021916 -0.240498 0.067538 -0.152129 0.032088 -0.172360 -0.057051 -0.082615 -0.100869 -0.041631 0.059795 -0.300159 -0.026411 0.248167 0.103293 0.241828 -0.111614 0.107571 0.051794 0.008955 -0.150007 0.133801 0.231765 -0.207193 -0.574553 -0.120284 0.131662 -0.017111 -0.066753 -0.015525 -0.288665 -0.339207 -0.406911 -0.139784 -0.056450 -0.009503 0.345818 -0.088575 -0.172899 0.066896 0.090306 -0.272641 -0.150629 -0.032163 -0.134250 0.071467 0.180225 0.079514 0.117027 -0.141175 0.463937 -0.099354 0.100078 0.183016 0.115633 0.021128 -0.216588 0.146609 -0.030044 0.055624 0.015059 0.014040 -0.008113 0.098992 -0.113448 -0.217462 -0.066343 0.027895 0.202825 -0.047092 -0.182861 -0.026904 -0.062557 0.100181 0.225309 -0.088307 0.049167 0.316570 -0.057882 -0.113853 0.320681 0.121713 0.013660 -0.040932 0.245229 0.141616 0.034817 0.028271 -0.165082 0.022234
： 0.006303 -0.388016 -0.073327 0.108220 0.160198 -0.113129 -0.051267 0.186036 -0.185554 0.192239 0.184024 0.034465 -0.024586 0.010771 0.004976 -0.041268 0.004391 -0.079133 -0.106404 -0.077540 -0.159464 0.034528 0.082939 0.100988 0.252564 0.014664 -0.196106 -0.054730 0.065632 0.044972 0.126666 0.192913 0.085700 -0.014229 -0.090390 -0.182508 0.019400 0.207061 -0.011482 -0.377915 -0.054408 0.094802 0.544636 0.152294 -0.088501 -0.049002 -0.097327 -0.629594 0.042630 -0.081439 -0.337710 0.300773 -0.265140 0.396218 0.193481 -0.119095 0.196204 0.175908 -0.120462 -0.088397 -0.161182 0.077835 -0.011888 -0.217699 -0.292900 0.072887 0.048675 0.100598 -0.155003 0.119669 -0.068630 -0.080899 0.178044 0.311590 0.063048 0.030729 -0.037070 0.119667 0.113126 -0.172650 0.045449 0.349563 0.193085 0.170465 0.199164 -0.200204 0.250466 0.143508 -0.376387 -0.362614 0.255797 -0.059075 -0.031085 -0.323200 0.078279 0.129033 -0.189877 -0.072928 -0.120018 0.329221 0.051300 0.213623 0.018373 0.153012 -0.238358 0.167400 0.158151 -0.597061 0.044364 -0.459728 -0.000826 -0.162481 -0.099779 0.098496 0.276636 0.015137 -0.125316 -0.268867 -0.184830 -0.226645 0.144145 -0.587551 0.329658 0.188120 -0.040988 0.387925 -0.371076 -0.019412 0.234446 0.181315 -0.244543 0.093094 0.644700 -0.224007 -0.347787 0.079602 0.137514 -0.053223 -0.089924 -0.444568 -0.124955 -0.395210 -0.116903 0.119254 0.151184 -0.321700 0.299857 -0.195686 -0.020262 0.021362 -0.048288 -0.074419 0.042465 -0.128028 -0.259132 -0.097324 0.049519 -0.118997 0.316396 -0.004085 0.472153 0.056483 -0.018858 0.213877 0.178515 0.087898 -0.259235 0.242683 0.111557 -0.137895 0.162819 -0.084790 0.119636 0.273813 -0.108268 -0.091388 -0.339873 -0.170652 0.187064 0.091054 -0.156702 0.173952 -0.058498 0.008290 0.100534 0.049813 -0.050338 0.138359 0.075123 0.227713 0.138652 0.049667 0.180058 -0.157768 0.099676 0.521930 -0.142704 -0.223926 -0.194171 0.137376
我 0.250116 -0.366958 0.065014 0.010725 0.231398 -0.177817 0.064359 -0.005259 0.115888 0.154000 0.171935 0.072470 -0.003175 -0.092480 0.202760 -0.030792 -0.306991 -0.289693 -0.055264 -0.189153 0.122888 0.081699 0.017909 0.158469 0.147464 0.079238 -0.224966 0.145837 0.182973 -0.149864 -0.156044 0.044855 -0.237059 0.174146 -0.108293 -0.066462 0.140773 0.092687 -0.124868 -0.026098 0.167881 -0.117048 0.390750 -0.036812 -0.051702 -0.161367 -0.355791 -0.311515 -0.090306 0.084679 -0.184472 0.090339 -0.098312 0.256595 0.292554 0.274648 0.039325 0.150774 0.239049 -0.011787 -0.014104 0.135062 0.151537 -0.208729 -0.171538 0.080030 -0.116087 0.159768 -0.061878 -0.149166 -0.065586 0.029528 -0.020271 0.098718 -0.068513 0.238489 0.174631 -0.003655 0.161002 -0.002617 0.202535 0.276254 0.039330 0.008368 0.258403 -0.254685 -0.046402 0.415975 -0.369803 -0.070436 0.165418 0.167119 0.047878 0.105566 -0.127156 0.189587 -0.022974 -0.210112 -0.297339 0.071683 -0.111609 0.265368 -0.108999 0.247901 -0.434307 0.216444 0.033944 -0.551442 -0.072594 0.009830 -0.028967 -0.181977 -0.032623 -0.179671 0.128933 -0.087196 0.120340 -0.221466 -0.200841 -0.218873 0.277069 -0.366933 0.003879 -0.027925 0.069605 -0.057702 -0.010946 -0.035958 0.039027 0.367287 0.044901 0.128941 -0.039109 -0.088411 -0.210587 -0.195746 -0.265087 0.117322 0.057173 -0.134257 -0.214258 -0.247163 -0.274339 0.054974 -0.111022 -0.567581 0.212942 -0.222993 -0.027288 0.198594 -0.052249 0.149065 -0.242251 -0.194625 -0.040973 -0.007490 0.168107 -0.079271 0.263272 -0.370942 0.190593 0.015323 0.115155 0.074836 0.307684 0.204195 -0.105276 0.298403 0.151988 0.045363 -0.128028 -0.065257 -0.150151 0.138840 -0.075110 0.019008 -0.181566 -0.044517 0.208922 0.067851 0.059112 -0.029587 -0.138191 -0.009103 -0.083886 -0.252082 -0.224802 0.450786 0.100208 -0.050416 0.050791 0.095502 -0.180603 0.003119 0.176932 0.367467 -0.042056 -0.330716 -0.165911 0.194028
有 0.193527 -0.147848 -0.216889 0.345840 0.167840 0.077381 -0.008271 0.086339 0.221482 0.238906 0.143423 0.243447 -0.096703 -0.003722 -0.135677 -0.121377 0.010825 -0.195820 -0.039212 -0.238165 -0.051397 0.061751 -0.011509 0.038362 0.070650 0.033089 -0.204374 0.058774 0.114010 -0.009768 0.019659 0.062417 -0.174101 0.126254 -0.432744 -0.156378 0.052458 0.125257 -0.388939 0.069865 0.187773 -0.004288 0.475281 0.353765 -0.122206 0.226154 -0.268776 -0.446217 -0.065467 -0.118917 -0.294591 -0.192187 -0.390997 0.195808 0.230505 -0.081404 0.115846 0.003057 0.090625 0.186092 -0.056296 0.335652 0.082503 -0.167190 0.035242 0.025190 -0.059429 0.210702 -0.167879 -0.040131 -0.229138 -0.109364 0.172920 0.088959 -0.176697 0.343278 0.145999 0.154341 -0.132280 -0.133544 -0.054391 0.218543 -0.014213 0.147761 0.218853 -0.073853 -0.024370 0.043339 -0.342652 -0.074920 0.059256 0.027434 -0.013542 -0.130538 0.204821 0.174387 0.172619 -0.098244 -0.134930 0.147733 -0.161286 0.497633 -0.049757 -0.013583 -0.308725 0.014092 0.049633 -0.513116 0.152826 0.066975 0.015450 -0.150230 0.182188 -0.215322 -0.022703 -0.015453 -0.375220 -0.162446 -0.026662 -0.050483 0.126628 -0.336465 0.000120 0.461875 0.130959 0.175786 -0.037611 0.188004 0.033869 0.149700 -0.126054 -0.134078 0.396584 -0.113067 -0.413782 0.019947 -0.227297 -0.194167 -0.142479 -0.215759 -0.338515 -0.352531 -0.306111 -0.061289 0.011045 -0.101890 0.085560 -0.102551 -0.045749 -0.049009 -0.093439 0.041288 -0.036300 -0.065175 -0.201354 -0.090002 0.343076 -0.040611 0.365802 -0.162164 0.393155 -0.009450 -0.086723 0.188582 0.368289 0.171773 -0.251415 0.188197 -0.122036 0.139621 0.067662 -0.155448 0.017550 0.112781 0.218069 -0.068295 -0.369653 0.116830 0.206730 -0.038797 -0.059644 0.015309 -0.206915 -0.085942 0.294301 -0.162627 0.094153 0.122246 0.001931 -0.110674 0.059908 0.137000 -0.032711 -0.031056 0.301763 0.203719 0.137252 -0.197206 -0.106715 0.044652
就 0.484062 -0.254062 0.117897 0.073744 0.176913 -0.025085 -0.108077 -0.041517 0.110389 0.022765 -0.128085 -0.133114 -0.100897 -0.227074 0.083103 -0.116274 -0.192863 -0.361043 -0.166347 -0.389477 -0.124933 0.027512 -0.046674 0.178063 0.209497 -0.209733 -0.157555 0.124745 0.250645 -0.318714 0.069681 0.171270 -0.015867 0.205610 -0.238911 -0.158581 0.194928 0.106788 -0.429328 0.108111 0.081431 0.229258 0.561157 0.154994 -0.120193 0.270526 -0.154745 -0.503762 -0.107812 -0.041260 -0.317614 -0.044995 -0.329272 0.147975 0.022334 0.022208 0.069256 0.099588 0.246299 -0.030863 0.037036 0.170639 -0.029094 -0.076297 -0.052169 -0.029847 0.054433 -0.120393 -0.141158 -0.209798 -0.201060 0.075133 0.109950 0.119138 -0.057518 0.118565 0.100716 0.164237 0.249238 0.148533 -0.060609 0.387972 0.109247 0.272171 0.125751 -0.208799 -0.132284 0.116165 -0.362249 -0.138416 0.357879 0.107960 0.063195 -0.097806 -0.116598 0.173013 0.162335 -0.175781 -0.124802 0.088283 0.033515 0.146537 0.070041 0.075269 -0.240446 0.093529 0.017559 -0.485399 0.021817 0.126479 -0.116306 -0.011733 0.065827 -0.093984 0.105387 -0.190101 -0.094173 -0.214251 0.017180 -0.141605 0.066387 -0.254103 -0.084618 -0.059771 0.051321 0.244476 -0.046645 -0.084229 -0.176307 0.118387 -0.183250 0.030955 0.066539 -0.113042 -0.193496 0.141978 -0.258033 0.137071 0.021973 0.135359 -0.313980 -0.362721 -0.261608 0.128114 -0.029706 -0.350472 0.271298 -0.016355 -0.073576 0.001857 -0.204943 -0.051785 -0.178418 -0.112081 0.083706 -0.017032 0.167915 0.043395 0.047859 -0.238265 0.359107 0.107304 -0.158097 0.271516 0.105996 0.081253 -0.153124 0.336119 0.107029 0.011100 -0.115878 -0.039139 -0.057622 0.165640 0.015819 -0.167292 -0.056794 -0.090182 -0.017977 0.013477 -0.196331 -0.069796 0.008270 0.082086 -0.069718 -0.246653 -0.206929 0.314188 -0.155977 0.078146 0.210645 0.068786 -0.135524 -0.005897 0.119347 0.285146 0.180187 -0.325743 -0.148104 0.018470
也 0.164303 -0.295481 0.054535 0.271378 0.170113 -0.008169 0.054988 0.010471 0.013570 0.168768 0.001725 -0.044618 -0.045339 -0.031910 -0.046233 -0.136203 -0.072286 -0.036954 -0.048421 -0.121568 -0.051672 -0.052684 -0.048101 0.075964 0.071385 0.122202 0.032486 0.193368 0.263642 -0.105038 -0.111256 0.103486 -0.039732 0.193689 -0.299205 -0.141847 0.179976 0.163290 -0.482221 0.089464 0.076726 -0.061930 0.507631 0.155925 -0.049503 0.083837 -0.156314 -0.575840 -0.134241 -0.178689 -0.276786 -0.030801 -0.338366 0.080954 0.017382 0.023794 0.136665 0.075277 0.271604 0.066796 0.035221 0.317462 0.223767 -0.141849 -0.107336 -0.018079 -0.022082 0.091009 0.045070 -0.084494 -0.225505 -0.082723 0.071191 0.060434 -0.035462 0.135783 -0.058303 0.208934 0.185894 0.083329 0.021948 0.263595 0.085149 0.327663 0.160312 -0.138441 -0.222704 -0.005235 -0.237156 -0.172541 0.159004 -0.060292 -0.129829 -0.230585 0.050804 0.073329 0.107548 -0.179672 -0.105526 -0.051694 -0.088714 0.291867 0.052064 0.028725 -0.384205 0.250241 -0.060119 -0.146869 0.098112 0.020969 -0.134297 -0.176571 0.110087 -0.014560 0.018050 -0.240871 0.012144 -0.281390 -0.185023 -0.090123 0.095053 -0.179737 -0.035992 0.191300 0.203226 0.101071 -0.098835 -0.014228 -0.023016 0.047385 -0.178397 0.127791 0.282007 -0.119828 -0.299480 0.018240 -0.188822 0.113180 0.002338 0.168488 -0.370566 -0.241365 -0.318565 0.058028 -0.097332 -0.241817 0.291455 0.068788 -0.130307 0.176384 -0.045578 -0.211730 -0.322820 -0.097197 -0.116501 -0.092721 0.185746 -0.021586 0.203219 -0.209287 0.454864 -0.071923 0.003231 0.341757 0.103996 0.064512 -0.265692 0.361700 -0.068113 0.220653 -0.149241 -0.060696 -0.144938 0.198757 -0.055615 -0.216227 0.136595 -0.107650 0.063468 0.012958 -0.024661 -0.011700 -0.092068 0.285138 0.037551 -0.212728 -0.017687 0.496595 -0.270493 -0.010513 0.255447 -0.006636 0.030243 -0.135156 0.257123 0.183453 0.102078 -0.252764 -0.359795 -0.012438
. 0.152968 -0.511123 -0.154984 0.145291 0.229029 -0.096814 0.259616 0.177022 0.203881 0.281827 0.220472 0.239591 0.004356 -0.070024 -0.018467 -0.089020 0.105021 -0.142781 -0.307653 0.095036 0.167400 -0.104063 -0.048004 0.425017 0.322662 -0.073061 0.122836 0.116061 0.277840 -0.049911 -0.113173 0.321747 0.145967 0.377164 0.174047 0.058043 0.374282 0.149913 0.001721 -0.717658 -0.176805 -0.145971 0.490260 0.337565 0.325799 -0.160071 -0.022841 -0.382353 -0.167090 -0.045587 -0.365421 0.184289 -0.309146 -0.039863 0.414860 -0.128577 0.070668 0.253489 0.312360 -0.239417 0.151608 0.156229 -0.160240 -0.204033 -0.212843 -0.192013 -0.180489 0.124990 -0.076778 0.052126 0.022467 0.195517 0.027601 0.402863 0.158066 0.188816 0.267311 0.104539 0.165390 0.137659 -0.066719 0.367191 -0.181193 0.097046 0.088156 -0.154338 0.100817 0.186770 -0.597640 -0.310758 0.256991 0.250201 -0.016945 -0.273837 0.057656 0.195151 -0.413666 -0.159631 -0.025283 0.268481 -0.599395 0.441037 0.018418 0.171547 -0.234459 0.073577 0.131151 -0.293917 -0.014782 -0.081042 -0.271427 0.161253 -0.112756 -0.453706 -0.002559 -0.309170 -0.132519 -0.167861 -0.338543 -0.337752 0.514967 -0.539779 -0.089220 -0.005693 0.159988 0.267562 -0.238569 0.176572 0.337579 0.154270 0.022334 0.326148 0.150982 0.334382 -0.354045 -0.234024 -0.046616 0.085124 -0.220660 -0.056573 -0.436793 -0.241737 -0.111806 0.030618 -0.275488 -0.398164 -0.166863 0.048706 -0.189234 0.104884 0.027200 -0.269384 -0.000029 -0.226471 -0.153174 0.114948 -0.140353 -0.171743 0.320895 -0.092180 0.573797 0.236979 -0.156557 0.311933 -0.300072 0.231342 -0.395862 0.206401 0.276143 -0.173633 -0.216395 0.081076 0.038938 0.190020 -0.113813 0.076042 -0.302868 -0.443476 0.221075 0.200059 0.158714 -0.396207 -0.009972 0.302689 0.113991 -0.013951 -0.015703 0.338158 0.061917 0.077592 0.300753 0.261275 0.028649 -0.285373 0.303295 0.319109 0.321401 -0.373795 -0.052675 0.385098
你 0.196675 -0.413569 -0.193016 -0.028678 0.083858 -0.160602 0.056523 0.026516 0.079402 0.118572 0.201429 0.202200 0.139000 -0.045282 0.088674 -0.138967 -0.304029 -0.370402 -0.068151 -0.192819 0.051983 0.027325 0.006962 0.076326 0.121701 0.091532 -0.148061 0.184907 0.213878 -0.102362 -0.066637 0.007343 -0.193839 0.211481 -0.001605 -0.010047 0.097145 0.154708 -0.138413 0.010725 0.124886 -0.038554 0.387651 -0.119846 0.042899 0.028990 -0.427187 -0.438673 -0.015737 0.299879 -0.333451 0.038042 -0.092777 0.227703 0.268350 0.111760 0.160384 0.079743 0.147394 -0.187701 -0.118144 0.254515 0.072039 -0.241052 -0.107774 0.065636 -0.072054 0.089260 -0.067181 -0.161194 -0.115364 0.097442 0.058213 0.121223 -0.019582 0.300983 -0.023852 -0.082189 0.131105 -0.099122 0.187851 0.472394 -0.031937 0.055526 0.401498 -0.307253 -0.110890 0.350619 -0.182668 -0.075902 0.220259 0.157263 -0.176675 0.154961 -0.031178 0.104142 0.082807 -0.136257 -0.271867 -0.002589 -0.045529 0.165032 0.047379 0.116028 -0.378738 0.280742 0.030183 -0.527375 -0.012045 0.082744 -0.071013 -0.229985 -0.167883 -0.212458 0.074345 -0.019812 0.018344 -0.190525 -0.170028 -0.253889 0.336667 -0.384434 -0.030042 0.167979 0.170375 -0.063066 -0.068450 -0.121485 0.010105 0.297168 0.021355 0.152808 0.100105 -0.147899 -0.318621 -0.094258 -0.448294 0.125155 0.084775 -0.053472 -0.044671 -0.421974 -0.294520 0.086377 -0.011067 -0.403234 0.082177 -0.032662 -0.058591 0.197719 -0.028515 0.112175 -0.289334 -0.032589 -0.151795 0.170474 -0.059253 0.027332 0.052921 -0.186587 0.256197 0.037636 -0.109358 0.180233 0.281565 0.252063 -0.076472 0.340151 0.172600 0.087610 0.001694 -0.102169 0.103248 0.009087 0.093228 0.221213 -0.091503 -0.158685 0.005176 -0.100152 0.161988 -0.089489 -0.218202 -0.095754 -0.078267 -0.030832 -0.386449 0.128386 0.193835 0.096884 -0.043238 0.053861 -0.286455 -0.201473 0.186419 0.532190 0.097447 -0.405708 -0.186014 0.421577
他 0.356082 -0.180596 0.185805 0.076327 0.331199 -0.095090 0.083784 0.163685 0.039445 0.165298 -0.210911 -0.144029 0.026207 -0.008117 0.115159 0.153219 -0.315223 -0.315678 -0.125675 -0.275004 0.048627 -0.026164 -0.207428 0.138856 0.016063 0.296121 -0.152143 0.085953 0.365987 -0.181412 -0.195845 -0.027485 -0.144713 0.166965 -0.208822 -0.205306 0.187133 0.069710 -0.164495 0.191943 0.049354 -0.205522 0.401674 -0.109109 -0.289946 0.174193 -0.444713 -0.579710 -0.069125 -0.070727 -0.284029 0.102862 -0.259838 0.123419 0.241752 0.046955 0.033525 0.064200 0.390926 0.318953 0.012024 0.113651 0.223803 -0.241004 -0.195292 0.005065 -0.075402 -0.091036 -0.175473 -0.187850 -0.108087 0.038966 -0.048065 0.305731 -0.140101 0.028423 -0.050135 0.114171 0.096918 0.153753 0.004003 0.213390 0.109737 0.253162 0.256142 -0.203195 -0.233502 0.324152 -0.320813 0.122623 0.076165 0.129405 0.145441 -0.056916 -0.238625 0.162722 0.222462 0.001166 -0.235903 0.081669 -0.068822 0.251633 -0.160848 0.107029 -0.182507 0.394777 0.040183 -0.346717 -0.014024 -0.096106 -0.141440 -0.117284 0.021265 -0.278333 0.107398 -0.240076 -0.137534 -0.038876 -0.192897 -0.209286 0.220044 -0.367716 -0.034870 0.007641 -0.000374 -0.052258 -0.304358 0.014885 0.011513 0.107071 -0.016340 -0.097363 0.241586 -0.066053 -0.275578 -0.290059 -0.200872 0.169460 0.113576 0.024798 -0.314034 -0.317138 -0.292706 0.136587 -0.046769 -0.404595 0.265102 0.028116 -0.214030 0.128330 -0.147983 -0.007080 -0.133556 0.042947 -0.142826 0.036087 0.042817 -0.021599 0.176794 -0.230591 0.246149 0.007058 0.293945 0.186524 0.326992 0.201506 -0.308895 0.273911 0.065966 -0.025237 0.097763 0.014973 -0.102837 0.190796 -0.025926 -0.039209 -0.054912 -0.310756 0.198466 -0.063157 -0.021261 -0.141478 -0.130768 0.120253 -0.033096 -0.085971 -0.200368 0.424152 0.140518 -0.043948 0.032764 -0.038938 -0.058793 0.051168 0.306588 0.294487 -0.008538 -0.458731 -0.203001 -0.022248
都 0.274581 -0.274623 -0.065608 0.083442 0.206895 -0.203451 0.074763 0.028322 -0.046327 0.194254 -0.100518 0.013564 -0.092206 -0.229475 -0.006606 -0.104054 -0.130704 -0.235061 -0.191815 -0.378899 0.008805 -0.019291 -0.072928 0.187756 0.047402 0.040731 0.153349 0.092148 0.262885 0.047060 -0.242863 0.071625 0.073943 0.246853 -0.383660 -0.037666 0.068396 0.344259 -0.345351 -0.089164 0.178482 0.038518 0.343577 0.257647 -0.159078 0.162653 -0.074741 -0.512506 -0.279019 -0.195817 -0.394737 -0.227556 -0.115441 -0.026446 0.143623 -0.077033 0.073865 0.272532 0.479165 0.144426 0.072319 0.388859 0.099080 -0.225782 -0.090631 0.027116 -0.043479 0.118992 -0.029840 -0.104395 -0.200976 -0.012664 0.296345 0.268285 -0.092680 0.231525 0.216731 0.073307 0.197959 0.032439 0.132500 0.374740 0.332165 0.221200 0.387163 -0.243016 -0.180152 0.037073 -0.188147 -0.185670 0.268412 -0.033694 -0.075940 -0.227649 -0.168849 -0.066208 0.325693 -0.252939 -0.147051 0.063259 -0.050221 0.399274 0.072076 0.171308 -0.276909 0.067086 0.090094 -0.307796 -0.009294 -0.028060 -0.094040 -0.204289 0.047676 -0.120743 0.086197 -0.203700 0.194961 -0.211577 0.049970 -0.309036 0.092514 -0.136185 0.012665 0.203849 0.015963 0.126790 -0.075478 -0.106422 -0.099606 0.211313 -0.023501 0.377378 0.165888 -0.130791 -0.312581 0.020707 -0.156447 -0.026536 -0.089542 0.018869 -0.315308 -0.209793 -0.191188 -0.103890 -0.153013 -0.313255 0.318259 -0.035837 -0.120662 0.127996 -0.055679 0.011652 -0.422903 -0.020566 -0.214914 -0.229168 0.259468 0.067107 0.191172 -0.170070 0.376149 -0.135390 -0.076034 0.269198 -0.142711 0.063149 -0.172206 0.365905 -0.195491 0.162325 -0.241802 -0.125715 -0.199835 0.179148 0.023477 -0.077219 0.067956 -0.037437 0.018429 -0.103415 0.068112 -0.022589 -0.051790 -0.030526 -0.012916 -0.289333 -0.085599 0.199679 -0.236759 -0.052730 0.213072 0.198692 -0.024122 -0.101761 0.181641 0.191633 0.223240 -0.202317 -0.144964 0.060989
我们 0.238955 -0.192848 -0.211907 0.150934 0.138219 -0.142815 0.109576 0.237430 0.113313 0.212766 0.185741 -0.072593 -0.038890 -0.148697 0.113447 -0.054734 -0.119707 -0.301614 0.010661 -0.373224 0.046995 -0.040254 0.217435 0.124474 0.107320 -0.154016 -0.214472 -0.026875 0.271341 0.034196 -0.048286 0.135981 -0.159336 0.291878 0.029767 -0.080823 0.075705 0.208965 -0.393423 -0.070348 0.074219 -0.010314 0.555231 0.265382 -0.203183 -0.059019 -0.227729 -0.438141 -0.154139 -0.004460 -0.155796 -0.156204 -0.280239 0.119024 0.270675 0.015977 0.061125 0.106046 0.119620 0.016656 -0.188581 0.195843 0.322265 -0.252883 0.009620 0.211928 -0.061827 0.101208 -0.118682 -0.004104 -0.315729 -0.033734 0.019271 0.093593 -0.038363 0.271059 0.076770 0.187507 0.279387 -0.091230 0.174323 0.263890 0.146483 0.175136 0.250636 -0.268815 -0.242602 0.098451 -0.340867 -0.046590 0.143537 -0.032850 -0.112147 0.059271 0.151730 0.063198 -0.010309 -0.218437 -0.250653 -0.027172 0.099709 0.089741 -0.039581 0.168280 -0.289254 0.112675 0.038056 -0.492440 0.032809 -0.059656 -0.062112 -0.199729 -0.181568 -0.242486 -0.032274 -0.016013 -0.094967 -0.256583 -0.216345 -0.405813 0.046074 -0.383228 -0.132296 -0.141405 0.036089 0.062235 -0.009278 -0.104389 -0.148759 0.223392 -0.115293 0.018296 0.128362 -0.147406 -0.275197 -0.035063 -0.139143 0.048862 -0.120634 -0.029140 -0.286435 -0.276701 -0.221037 -0.014872 -0.111541 -0.187855 0.305286 0.113838 -0.179423 0.218023 0.150745 0.004675 -0.448954 0.051357 -0.141597 0.068116 0.264635 0.025572 0.116729 -0.159488 0.360647 -0.075746 0.090265 0.157042 0.453843 0.074740 -0.149657 0.125378 0.039159 0.095487 -0.052240 0.164203 -0.039177 0.167412 -0.008903 -0.025282 -0.074631 -0.067798 0.095912 0.279136 -0.052315 -0.155109 -0.182204 0.130321 0.056165 -0.232989 -0.186970 0.180461 -0.034499 0.131032 0.156559 0.153899 0.015085 0.019390 0.207332 0.202583 0.235376 -0.256160 -0.141990 0.137744
可以 0.275877 -0.250818 -0.219417 0.275766 0.065292 -0.094667 0.003337 0.005189 0.103370 0.173358 -0.107274 -0.011455 -0.063857 -0.094417 -0.161886 -0.266657 -0.066372 -0.164109 -0.262418 -0.312589 -0.146709 0.003824 0.185425 0.058839 0.171126 0.062732 0.047593 0.070501 0.291612 -0.029818 0.016383 -0.046998 0.001372 0.092773 -0.213808 -0.265269 -0.111998 0.071742 -0.344065 0.036210 0.169924 -0.165187 0.661092 0.124555 0.123096 0.036172 -0.437211 -0.441215 -0.097982 -0.111334 -0.383510 -0.162333 -0.295116 0.364989 -0.019438 -0.051313 0.136749 0.029619 0.201043 0.077066 -0.131566 0.244570 0.086800 0.019773 -0.110156 -0.124003 -0.199454 -0.120332 -0.091870 0.141612 0.066976 0.030360 0.288655 0.338087 -0.074212 0.043193 -0.026097 -0.010355 0.189746 0.201994 0.214979 0.202939 -0.022870 0.593446 0.315563 -0.167695 -0.213873 0.074836 -0.221351 -0.160200 0.275220 -0.177022 0.094458 0.029593 0.014561 0.043361 0.188822 -0.221165 0.035752 0.003170 -0.159467 0.027437 0.086950 -0.032154 -0.502267 -0.085657 -0.062066 -0.576728 -0.068335 -0.061410 -0.093523 -0.129210 0.089231 -0.239798 -0.133737 -0.020231 -0.118091 -0.214750 -0.131863 0.007136 0.400981 -0.177735 0.119076 0.048497 -0.050961 0.351569 -0.055416 0.107137 -0.029748 -0.034135 -0.008661 0.213488 0.203525 -0.187079 -0.359087 0.055053 -0.405476 -0.135164 -0.059933 0.045833 -0.267607 -0.396878 -0.132925 -0.190046 -0.202525 -0.301038 0.117625 -0.093404 -0.144979 0.058021 0.011482 0.297880 -0.205544 -0.085810 0.013952 0.060741 0.293690 0.056219 0.051711 -0.339092 0.358230 -0.111152 -0.170226 0.264236 0.325333 0.072323 -0.020590 0.035614 -0.022378 0.045148 -0.068080 0.194687 0.155251 0.270230 -0.095923 0.033588 -0.200953 0.272542 -0.145071 -0.018961 -0.042639 0.055443 -0.043538 -0.219977 0.098254 -0.265180 -0.087788 0.011996 -0.268623 -0.023623 0.253244 0.299151 0.296705 -0.111050 0.155514 0.098395 0.186917 -0.296895 -0.242737 0.082955
上 0.207592 -0.334946 -0.175120 0.354993 0.204081 -0.035386 -0.015843 0.431632 0.246055 0.210290 -0.210971 -0.062221 -0.294472 -0.102817 0.098942 -0.395262 0.161279 -0.377555 -0.057232 -0.123915 -0.028566 0.106477 -0.162637 0.203791 -0.008248 0.195192 0.097774 0.195729 0.115922 0.034176 0.010364 0.055804 -0.133272 0.004356 -0.394536 -0.172679 0.091745 0.441156 -0.291089 -0.023687 0.091559 0.078236 0.289200 0.025527 -0.317484 0.027894 -0.169899 -0.595691 0.009652 -0.077844 -0.326910 -0.082633 -0.342171 0.111516 0.082155 -0.021316 0.050605 0.127912 0.609225 -0.061441 -0.114853 0.183468 0.273054 0.069875 0.061678 -0.209377 0.079523 -0.001647 -0.007201 0.256170 0.089402 -0.079464 0.170401 0.355563 -0.229013 0.131523 0.109827 0.030226 0.401073 -0.118564 -0.019201 0.208396 -0.005133 0.146897 0.132113 -0.371688 -0.115841 -0.027267 -0.521284 -0.132851 0.105396 -0.027325 0.245074 -0.126493 0.294293 0.043676 0.051960 -0.014107 0.050382 0.158794 0.220987 0.371480 0.051468 0.126081 -0.328088 0.270723 0.251709 -0.403899 0.179767 0.050555 -0.107612 -0.400085 0.204505 -0.194396 0.144645 -0.451560 -0.060060 -0.229507 -0.140600 -0.135089 0.007457 -0.294866 0.230212 0.276089 -0.027183 0.040906 -0.038398 0.210444 0.023746 0.334274 -0.143896 0.132080 0.046413 -0.256170 -0.128718 -0.010175 0.072527 -0.251872 0.131126 0.018821 -0.065102 -0.273205 -0.303579 0.100866 0.395949 -0.160754 0.253569 0.263323 -0.093649 -0.051889 -0.112292 -0.268579 -0.085321 -0.224548 -0.093654 0.203524 -0.056233 -0.032154 -0.098018 -0.232225 0.232302 -0.155319 0.157309 0.535989 0.148034 0.091995 -0.231475 0.183639 0.099340 0.072876 0.043519 0.073014 -0.014182 -0.050462 0.009688 0.143993 0.016738 0.168730 -0.066344 0.098104 -0.390514 0.034965 -0.300957 0.221726 -0.120724 -0.295924 -0.081303 0.444768 -0.044372 -0.117523 0.230087 0.126721 0.184430 0.027838 0.205730 0.162596 -0.094462 -0.198826 -0.028617 0.044349
与 -0.007731 -0.203051 0.012165 0.420904 0.176767 0.134440 -0.047511 0.279534 0.230142 0.606409 0.309787 0.061356 0.218733 -0.090243 -0.172963 -0.177278 0.232662 -0.029879 -0.165462 0.008056 -0.176221 0.147794 0.075518 0.149768 0.043910 0.026165 -0.173222 -0.076385 -0.032400 -0.111265 0.120025 -0.012353 0.027459 0.132157 -0.229198 -0.331898 0.204651 0.213382 -0.303513 0.065074 -0.112321 0.036533 0.784259 0.154061 0.131201 0.095244 -0.266652 -0.762696 -0.094803 -0.235176 -0.257078 -0.041809 -0.288853 0.241363 -0.144298 -0.036473 -0.158583 0.158688 0.051471 -0.146074 0.012850 0.082771 0.413666 -0.183626 -0.077309 -0.188703 0.122640 0.051900 0.046551 0.274511 -0.169416 -0.026708 0.060555 0.319069 -0.356390 0.014668 0.275846 0.180191 0.202896 0.134762 -0.001250 0.151017 0.171644 0.173572 0.196574 -0.159124 -0.197183 -0.307391 -0.298986 -0.056452 0.102041 -0.200618 -0.030968 -0.278781 -0.031430 0.124432 0.064785 0.102316 -0.269219 0.088690 0.041360 0.230487 0.009545 0.032591 -0.304371 0.395762 -0.249973 -0.296785 0.164155 0.240114 -0.045048 -0.254643 -0.095443 -0.288967 0.146209 -0.266780 -0.217975 -0.048050 -0.121750 0.009901 0.027315 -0.213161 0.063489 0.236904 0.017419 0.298643 -0.058443 0.102472 0.014390 -0.036515 -0.188999 0.105714 0.116254 -0.170185 -0.388807 -0.122029 -0.013470 -0.080055 -0.153056 0.060480 -0.348119 -0.314879 -0.408918 -0.097050 0.000806 -0.058872 0.415423 -0.019696 -0.153687 0.118632 0.107380 -0.395140 -0.275912 0.045379 -0.104366 0.170236 0.124155 0.095155 0.041401 0.170439 0.439507 -0.123351 0.360310 0.043953 0.087805 -0.162915 -0.195385 0.198887 0.017231 -0.063032 0.180417 -0.185393 -0.184457 -0.033881 -0.212353 -0.108244 0.028390 -0.080830 0.226793 0.057562 -0.041270 0.029792 -0.057173 0.201623 0.235027 0.202013 0.171271 0.306355 -0.172685 0.010697 0.385479 0.024083 0.009379 -0.076195 0.094411 0.136980 0.068556 -0.117665 -0.180963 -0.068969
个 0.425912 -0.264015 -0.061865 0.477943 0.020787 0.213796 0.034200 -0.018755 -0.156473 0.423712 0.123904 -0.092431 -0.076987 0.037709 -0.247762 0.022369 0.023276 -0.145310 -0.006419 -0.382430 -0.068714 0.050265 0.030893 0.202330 0.143520 0.049193 -0.228607 0.112157 0.201913 -0.280707 -0.141689 -0.149806 -0.105497 0.220408 -0.174367 0.058757 0.197375 0.125501 -0.563838 -0.325527 -0.092907 -0.089328 0.376914 0.060400 -0.097156 0.311248 -0.219318 -0.428045 -0.003657 0.076904 -0.206444 -0.181691 -0.181634 0.194713 -0.163800 0.035549 0.010265 -0.103294 0.501145 -0.032214 -0.019411 0.021384 0.194245 -0.376259 -0.297589 -0.255686 -0.315437 0.043822 -0.246669 0.125548 -0.311310 0.028759 0.151693 0.219120 0.389388 0.086679 0.029764 -0.000687 0.296901 -0.062122 0.179359 0.218905 0.036779 0.120417 -0.033467 -0.512362 -0.079796 0.231477 -0.480906 -0.022276 0.344204 -0.041969 0.177756 -0.161355 -0.065263 0.090647 0.145161 -0.325689 -0.292921 0.252442 0.002042 0.247130 -0.110232 0.264385 -0.378088 0.271172 -0.092974 -0.465704 0.013266 -0.290571 -0.118299 0.006198 -0.013013 -0.273445 0.152656 -0.040632 -0.091012 -0.031366 0.049337 -0.300801 0.064621 -0.303919 0.184877 -0.106313 0.101217 0.077714 -0.250569 -0.122259 0.298904 0.098043 0.149110 -0.104161 0.161666 -0.006652 -0.295738 -0.378044 -0.086450 -0.050674 -0.479755 0.135736 -0.241448 -0.129738 -0.274491 0.002740 0.171051 -0.066502 0.169632 0.027925 -0.165848 0.016130 -0.147741 -0.105495 -0.280717 -0.009498 0.084872 0.020646 -0.095030 0.397698 0.173330 -0.151710 0.213169 -0.056726 0.000152 0.012390 0.022674 0.206654 -0.029285 -0.070167 0.037602 -0.068929 -0.238296 -0.104620 0.168502 0.576752 -0.070965 -0.195262 -0.103517 0.183306 -0.052048 -0.113031 -0.111371 -0.305603 -0.168648 0.225376 0.185406 -0.093700 0.071620 0.405155 0.219426 -0.199355 0.093489 0.133719 -0.016236 -0.040334 0.372924 0.316801 0.151332 -0.241730 0.003315 0.256956
对 0.320483 -0.180909 0.046753 0.174974 0.058525 -0.086469 -0.016820 0.129376 0.106704 0.277146 0.043293 -0.013877 0.265981 0.039144 -0.151737 -0.078151 0.152001 -0.133363 -0.069660 -0.323404 -0.101105 -0.020492 -0.138102 0.242488 -0.024084 0.153042 -0.234181 -0.104015 0.056020 -0.045816 -0.108944 0.139692 0.161330 0.237316 -0.107739 -0.340627 0.042052 0.048597 -0.091879 -0.051124 -0.050650 0.001830 0.586200 0.492782 -0.177123 0.117284 -0.137826 -0.459520 0.183196 -0.113645 -0.143609 -0.026741 -0.363374 0.320849 0.078629 -0.026990 0.024211 -0.005438 -0.060323 0.216914 0.176638 0.039146 0.256913 0.141088 -0.072352 -0.080612 -0.003230 0.126088 -0.292383 -0.194487 -0.158250 0.106449 0.100210 -0.176463 -0.036669 0.037537 0.116549 0.257603 0.012630 -0.037454 0.072861 0.248412 0.230647 0.217855 0.228893 -0.281535 -0.132138 -0.048997 -0.257523 -0.210715 0.132750 -0.118617 -0.030715 -0.115148 0.024670 0.186077 0.177959 -0.073783 -0.140007 0.099246 0.023850 -0.057369 -0.078131 0.106667 -0.401163 0.098519 0.002768 -0.230024 0.147197 -0.084482 -0.377456 -0.217361 0.125026 0.028637 0.038615 0.169424 0.201091 -0.234720 -0.081747 -0.320816 0.244642 -0.428420 0.095613 0.343058 0.172105 0.110066 0.123001 -0.022695 -0.101775 0.066640 -0.046182 -0.169273 0.247613 -0.199328 -0.709435 -0.315796 -0.070473 -0.129569 -0.001869 0.004846 -0.335359 -0.412390 -0.478136 -0.003783 -0.127901 -0.060862 0.541100 -0.140454 -0.274751 -0.212572 0.220226 -0.207839 -0.293332 0.034269 -0.022688 0.040240 0.193228 0.289937 0.247424 -0.227374 0.541146 -0.226609 0.139199 0.113192 -0.034950 -0.116353 -0.281573 0.290610 -0.004523 0.007411 -0.043976 -0.031929 -0.091960 0.089007 0.000182 -0.163616 -0.298496 0.160336 0.176577 -0.199675 -0.112137 -0.178584 -0.327603 0.316038 0.163319 -0.116494 0.096155 0.199349 -0.081385 0.182589 0.439441 -0.086816 0.371485 -0.079284 0.219855 0.318389 -0.117662 -0.230353 -0.115333 -0.235637
这 0.170244 -0.290376 0.017166 0.365136 0.171340 0.035153 0.185188 -0.023175 0.223326 0.247475 0.095669 -0.017485 0.047427 -0.120888 -0.000669 0.113036 -0.154708 -0.231357 -0.141113 -0.143842 -0.035486 0.157368 0.123715 0.006242 0.178075 0.084299 -0.068897 0.077912 0.157935 -0.038873 -0.122305 0.096850 -0.014087 0.037033 -0.102337 -0.125202 -0.052398 0.212151 -0.208329 0.054408 -0.015926 0.016951 0.396080 0.117570 -0.144353 -0.048626 -0.203336 -0.725330 0.029048 -0.363463 -0.264709 -0.004080 -0.350932 0.250739 -0.057348 -0.102220 -0.032719 -0.025833 0.238007 0.218429 0.007717 0.357292 0.120520 -0.096272 -0.066482 -0.135253 0.129443 0.113577 -0.261946 -0.157863 -0.169427 0.054802 0.113404 0.068960 0.032676 0.230969 0.115922 0.258708 0.327330 0.112561 0.006751 0.389974 0.170813 0.046448 0.192925 -0.310506 -0.141255 0.147906 -0.401971 -0.295548 0.087567 0.091880 0.036118 -0.209567 0.006163 0.185578 0.111385 -0.086548 -0.103554 0.182598 -0.022998 0.125636 0.002669 0.275053 -0.376853 0.139657 -0.088470 -0.352720 -0.020249 -0.177430 -0.171935 -0.126258 0.210643 -0.189685 0.080618 -0.153731 -0.006842 -0.236751 -0.037076 -0.169227 0.175879 -0.271369 -0.232372 0.128408 0.121931 0.100477 -0.090132 0.111003 -0.094715 0.070954 -0.312391 0.102653 0.334334 -0.190440 -0.342081 0.129136 -0.164472 -0.083517 -0.149222 0.022113 -0.417201 -0.163624 -0.308146 -0.121802 0.180712 -0.242495 0.178351 0.124184 -0.159038 0.103760 -0.038604 -0.092984 -0.391312 -0.193740 -0.226611 0.123292 0.274378 0.067767 0.108397 -0.171170 0.327866 0.073818 -0.090118 0.169812 -0.070504 0.308668 -0.177521 0.049751 0.170197 0.050043 -0.049659 -0.052014 -0.171621 0.059108 0.064943 0.048317 -0.152026 0.065815 0.146693 0.151194 -0.002798 -0.028713 -0.160310 0.072544 -0.007245 0.040484 0.028987 0.270807 -0.067909 -0.072617 0.080539 0.032629 0.060585 -0.043235 0.364834 0.188028 0.215617 -0.159601 -0.334463 0.038447
~ 0.034433 -0.388317 -0.448883 0.084547 0.112937 -0.051485 0.092657 -0.118057 0.385134 0.189099 0.309831 0.303421 0.091268 -0.057418 -0.003123 -0.134432 -0.103288 -0.060799 -0.349649 -0.188414 -0.247187 -0.107125 0.352204 0.199739 0.176143 -0.524345 -0.125759 -0.086014 0.091207 0.040901 0.067236 -0.060384 0.263751 0.323610 -0.057874 -0.153976 0.446462 0.073179 -0.130635 -0.489120 0.063161 0.096299 0.613617 0.248560 0.276005 -0.099375 -0.245782 -0.293144 -0.214777 -0.006400 -0.178904 -0.077956 -0.288852 0.401459 0.452546 0.215676 -0.121286 0.140276 -0.346001 -0.061560 -0.297171 0.021278 -0.267935 -0.041110 -0.102167 -0.070052 0.072148 0.385859 0.202321 -0.164566 -0.100980 0.305892 -0.042357 0.368170 0.079967 0.270573 0.012963 0.063550 0.081019 -0.016817 0.279059 0.437230 -0.369468 0.353494 0.335052 -0.175036 -0.207677 0.370187 -0.245311 -0.368250 0.102076 0.207044 -0.001861 -0.201793 0.237226 0.223540 0.069697 -0.277090 0.137779 0.284513 -0.012782 0.400515 -0.116509 -0.030297 -0.391146 0.082441 0.179947 -0.325962 0.096528 -0.161271 0.064688 0.034917 0.008210 0.021829 -0.081591 -0.171612 -0.112987 -0.191943 0.076453 -0.422601 -0.094243 -0.127973 0.141942 -0.243506 0.226992 0.457405 0.095502 -0.053134 0.140499 0.066603 -0.048658 0.492394 0.288535 0.038061 -0.077239 0.075508 -0.215924 -0.269779 0.239509 -0.153061 -0.283605 -0.148434 -0.120384 -0.012836 -0.035035 -0.325849 0.051265 -0.109605 -0.071077 0.120083 -0.056640 -0.200234 -0.206531 -0.385222 -0.206857 0.414137 0.248092 -0.256984 0.262494 -0.140019 0.370511 -0.095206 -0.126295 0.188613 -0.040196 0.354925 -0.326537 0.145917 0.347352 0.038167 -0.065635 -0.123092 0.003546 0.389298 -0.127708 -0.024347 -0.159457 -0.327419 0.027035 -0.086444 -0.021630 -0.010033 -0.151091 -0.046770 -0.181149 0.119474 -0.146401 -0.000272 -0.211994 0.114292 0.091280 0.243976 -0.045333 -0.137914 0.138166 0.612797 0.233432 -0.163859 -0.273020 0.080864
为 -0.070299 -0.063114 0.010194 0.239129 -0.024093 0.098086 -0.115810 0.187128 0.052956 0.463303 0.166727 0.201299 -0.044658 0.048585 -0.075959 0.132710 -0.037830 -0.146494 -0.129754 -0.243131 -0.280108 0.032558 0.176471 0.087165 0.007968 0.216671 -0.074183 0.022402 -0.014678 0.100921 0.099017 0.171322 0.150291 -0.092034 -0.224512 -0.301874 0.330961 0.315655 -0.277086 -0.304985 0.101079 0.305956 0.604419 0.343880 -0.002834 0.234431 0.000803 -0.513708 -0.236168 -0.374409 -0.442790 -0.072699 -0.184761 0.001790 -0.178129 -0.029722 -0.010487 0.278836 -0.058924 0.242050 -0.040982 0.306966 0.170869 -0.228002 -0.439003 0.053651 -0.296525 0.249296 -0.127571 0.110882 -0.283488 -0.016645 0.093237 0.359454 0.041722 -0.020797 0.099157 0.135170 0.216627 0.012024 0.043473 0.011228 -0.115241 0.650741 0.185730 -0.055702 0.144583 -0.357492 -0.291454 -0.270800 -0.040337 -0.272736 0.360079 -0.354665 -0.089381 -0.062369 -0.185570 -0.107345 -0.124202 0.134727 -0.283136 0.175523 -0.174650 -0.058159 -0.131364 0.835763 -0.066421 -0.023249 -0.227907 -0.191989 -0.140049 -0.149537 0.008150 -0.173392 -0.061345 -0.263699 -0.299086 -0.126410 -0.184053 -0.060999 0.052907 -0.192593 0.146612 0.260320 -0.032570 0.081084 -0.241219 -0.237191 0.158643 0.011170 -0.203817 -0.046504 0.433657 -0.070883 -0.501620 -0.138328 -0.038103 0.072598 0.122399 -0.176736 -0.352048 -0.240299 -0.132770 -0.225607 -0.131892 0.001617 0.155815 0.220337 0.022597 0.050606 0.217443 -0.131601 -0.046078 -0.218796 0.078226 0.346769 0.088591 0.052108 0.215043 0.021379 0.375133 0.036792 0.180476 0.212267 0.103893 -0.043614 -0.195241 0.046847 0.203392 0.202916 0.100000 -0.155955 0.019194 -0.008160 -0.032867 -0.280039 -0.348400 0.028566 0.145086 0.078241 -0.282686 -0.244965 -0.170341 0.060689 -0.044797 -0.081885 -0.186959 0.499100 -0.004710 0.126066 0.354545 0.119279 0.298357 0.005329 0.057550 0.290130 0.164946 0.019002 -0.197523 0.238708
等 -0.069606 -0.131130 0.025401 0.319365 0.093070 0.127459 -0.064403 0.156999 0.051240 0.092769 -0.184998 0.081765 0.000951 -0.118067 -0.374281 -0.039257 0.229571 -0.175037 0.107123 -0.064138 -0.290959 -0.101253 -0.125830 -0.224890 -0.148346 0.125012 -0.007410 0.216384 0.015993 0.077617 0.147235 0.162847 -0.059717 0.446534 -0.082110 -0.232292 0.224742 0.326916 -0.152779 0.146701 0.188688 0.156198 0.200194 0.351399 0.007416 0.163759 -0.360622 -0.623862 0.240812 0.016947 -0.220747 -0.318560 -0.295810 -0.053876 0.025346 0.035607 0.243150 0.088508 0.422983 -0.360488 0.262938 0.012273 0.300115 -0.061777 -0.101394 -0.008458 -0.086204 -0.057367 -0.073159 0.311697 0.006627 -0.092734 0.443086 0.340978 -0.241563 0.140327 0.040421 0.127070 -0.049140 -0.438400 -0.155093 0.461878 0.107219 0.288116 0.098945 -0.054824 0.021584 0.050926 0.150850 -0.240232 0.365253 -0.070615 -0.122909 -0.250558 0.017547 0.178229 0.136916 0.043337 -0.029548 -0.047076 -0.269030 0.482813 0.219130 0.118709 -0.297203 0.456984 -0.148305 -0.212458 -0.166261 -0.036599 0.192999 -0.251832 0.027373 -0.274001 -0.214797 -0.306675 0.117164 -0.119286 -0.204301 0.122399 0.141550 -0.473724 0.118753 0.212425 0.064850 0.176233 -0.068834 0.209371 -0.022256 -0.162530 -0.137347 0.219751 0.343428 -0.182083 -0.506897 0.018783 0.271439 -0.214254 -0.076647 -0.256016 -0.272543 -0.446981 -0.525596 -0.236055 -0.126320 0.082948 0.391638 -0.094587 -0.080376 -0.167022 -0.013579 -0.051632 -0.044101 0.084878 -0.292313 0.187725 0.149527 -0.011008 0.219421 -0.111147 0.518666 -0.019256 0.136238 0.184526 0.098016 0.035010 -0.241243 0.186936 -0.167994 0.004113 -0.083715 0.176604 -0.061991 -0.026760 -0.037487 -0.316487 -0.251453 -0.052714 0.152599 0.086786 -0.274245 0.079658 -0.033745 0.191041 0.217245 0.132883 0.117639 0.174457 -0.092606 -0.063443 0.202360 0.382444 0.244923 -0.176684 -0.071107 0.336716 0.122676 -0.059868 -0.315496 -0.056826
吗 0.299329 -0.321911 -0.345951 0.052636 0.291682 -0.090739 -0.023552 0.064882 0.189718 0.110751 0.086836 -0.025547 0.150004 -0.115224 0.211880 -0.147503 -0.041400 -0.387409 -0.153053 -0.187948 0.167469 0.329678 0.227920 -0.070707 0.086248 -0.122777 -0.269124 0.023740 0.235935 -0.061300 0.037561 -0.031084 -0.014510 0.346728 0.074198 -0.097116 0.043715 0.091198 -0.208827 -0.103091 -0.007160 -0.056694 0.382489 0.176961 -0.175223 0.040343 -0.142512 -0.666062 0.151409 0.139143 -0.326843 0.239245 -0.308266 0.003600 0.072384 0.209997 0.032051 0.154007 0.067530 0.153811 -0.040860 0.197181 -0.198017 -0.227788 0.103758 0.112120 0.161691 0.096199 0.104378 -0.219838 -0.340844 0.115154 -0.052595 0.085946 0.085873 0.177108 -0.087681 0.025371 -0.048566 -0.060612 0.252975 0.272970 -0.090667 -0.194969 0.241216 -0.118877 0.109177 0.155582 -0.099134 -0.488872 0.308917 0.117588 -0.179537 -0.214640 0.151709 0.007743 0.091866 0.048359 -0.034088 -0.046641 -0.092752 0.016214 0.205146 0.194572 -0.341507 0.090925 0.069078 -0.406486 -0.005593 -0.029009 0.185040 -0.272206 -0.075869 -0.010615 0.161862 -0.036210 0.011035 -0.139253 -0.090439 -0.098695 0.458286 -0.440889 -0.018350 0.099016 -0.045077 0.198372 -0.028851 -0.169545 0.028358 0.037061 0.053479 0.223514 0.321897 -0.178009 -0.361961 -0.184354 -0.309944 -0.046350 -0.131858 -0.018598 -0.261058 -0.377984 -0.212871 0.161550 0.115411 -0.233868 -0.017847 0.104368 -0.037417 0.051957 -0.124018 -0.007306 -0.255028 -0.134460 -0.285458 0.149659 0.193758 0.062734 0.147079 -0.074316 0.467542 -0.212286 -0.044547 0.245300 0.226013 0.118574 0.112652 0.192425 0.252602 0.032969 0.077722 -0.119527 0.080575 0.120939 -0.047538 0.136991 -0.343265 -0.017341 -0.004304 0.239606 -0.000502 -0.181447 -0.091068 0.097591 0.174076 0.023436 -0.436319 0.125737 0.162124 0.016320 -0.039253 0.112090 -0.101046 -0.263708 0.168472 0.391035 -0.253945 -0.477179 -0.264777 0.234494
而 0.118066 -0.169210 -0.051741 0.240368 0.074544 0.096900 0.036055 0.082658 0.242729 0.407540 -0.052840 0.018127 0.006827 0.099408 -0.002478 -0.080277 -0.037563 -0.210907 -0.221250 -0.008518 -0.077999 0.172047 0.027042 0.152504 0.061705 0.040447 -0.151081 0.181052 0.234553 -0.214326 -0.075574 0.097416 0.033966 -0.088536 -0.173027 -0.025543 0.220834 0.336834 -0.290953 0.092518 -0.003413 0.091878 0.570793 0.131520 -0.081824 0.134035 -0.229717 -0.631965 -0.021612 -0.152717 -0.260058 0.100323 -0.405957 0.131918 -0.169537 -0.113804 -0.004152 0.206425 0.174655 0.096998 -0.048361 0.272838 0.427849 -0.193023 -0.061847 -0.121254 -0.154277 0.069829 -0.194706 -0.207831 -0.293077 -0.054433 0.022980 0.211049 -0.099297 0.194857 -0.026627 0.227622 0.179161 0.220536 -0.105686 0.238774 0.198846 0.200296 0.171156 -0.122956 -0.190388 -0.201019 -0.314113 -0.214349 0.198522 -0.126838 0.080710 -0.276003 0.023562 0.067943 0.068765 -0.083370 -0.333848 -0.007715 -0.175879 0.342816 0.044131 0.094178 -0.239276 0.318611 -0.191726 -0.046569 -0.028204 -0.074637 -0.087896 -0.104431 0.060761 -0.214661 0.008883 -0.157155 -0.222979 -0.173577 -0.139874 -0.061479 -0.034978 -0.286262 -0.094961 0.228291 0.162454 0.059414 -0.242136 0.056919 -0.015207 0.007091 -0.099619 0.036546 0.294015 -0.062562 -0.453616 0.030061 -0.103724 0.013375 0.020881 0.101781 -0.237146 -0.350188 -0.343032 -0.097024 0.061768 -0.128225 0.130587 0.103598 -0.172972 0.058029 0.130268 -0.180851 -0.251304 0.059921 -0.007189 0.202368 0.050847 -0.026243 0.132117 -0.308823 0.567293 -0.198360 -0.064501 0.266528 0.217454 -0.040595 -0.237168 0.199759 0.007797 0.195457 -0.044001 0.165620 -0.033087 0.176391 0.059378 -0.063964 0.119578 0.091625 0.022345 0.173547 -0.170596 -0.107296 -0.038592 0.169234 0.087305 -0.098005 -0.029246 0.437540 -0.027540 0.070662 0.255907 -0.002441 0.037460 -0.240991 0.121515 0.161758 0.139423 -0.201521 -0.307673 -0.027992
到 0.293907 -0.059175 -0.138406 0.289741 0.159026 0.041389 0.233378 0.289039 0.259247 0.143951 0.093605 -0.017739 -0.065444 -0.082047 0.035860 -0.159760 -0.011430 0.031684 -0.258430 -0.217237 -0.389693 0.075688 -0.306185 0.355475 0.089970 -0.150047 -0.254139 0.081658 0.002304 -0.086940 -0.195978 0.133700 0.079146 0.404040 -0.275464 -0.093251 0.195067 0.132351 -0.335045 -0.058705 0.243893 -0.002829 0.357370 0.331846 -0.147623 0.187520 -0.431869 -0.646623 -0.133802 -0.226289 -0.292138 -0.018793 -0.194150 0.005263 0.191075 0.126465 0.115377 -0.051318 -0.136394 0.105012 -0.210388 0.129195 -0.006567 -0.068680 -0.218239 -0.433981 -0.229776 -0.141297 -0.150366 -0.192533 -0.044735 0.040243 -0.097937 0.209750 -0.051852 0.039474 0.249522 0.117017 0.166009 -0.265478 0.158416 0.133620 -0.214624 0.222965 0.018388 -0.186427 -0.237687 -0.051940 -0.334022 -0.156910 0.208466 -0.182199 0.068783 0.072398 -0.075635 0.140691 0.190767 -0.054501 -0.285075 0.176841 -0.080085 0.393706 0.047283 0.174571 -0.137904 0.235069 0.022192 -0.532868 -0.081576 0.166235 -0.099823 0.028333 -0.138444 -0.138890 0.151542 -0.062942 -0.098359 0.139511 -0.169935 -0.116965 0.131030 -0.403542 0.124898 -0.103010 -0.110158 0.297780 -0.456692 0.152539 -0.000044 -0.000853 -0.377541 0.141104 0.113500 0.194814 -0.067796 -0.232596 -0.286556 -0.469864 -0.017201 -0.004576 -0.071898 -0.328335 -0.328530 0.128106 -0.187962 -0.172957 0.244855 0.073212 0.091948 -0.007975 0.226332 -0.070297 -0.182737 -0.152950 -0.303250 0.308058 0.199454 0.044229 0.312035 -0.216082 0.365240 0.140306 -0.152104 0.288194 0.282443 -0.025163 -0.357369 0.192547 -0.137642 0.100119 -0.115944 0.136077 -0.011221 0.321421 -0.004953 -0.075544 0.004343 0.103072 0.001155 0.054358 -0.018317 -0.127496 0.039637 0.084005 -0.009546 -0.267617 -0.144123 0.393076 -0.240731 0.203347 0.095398 -0.082975 0.272969 -0.001595 0.068787 0.262129 0.224939 -0.328506 -0.092822 0.105050
但 0.274305 -0.238208 0.044685 0.460825 0.254120 -0.038942 0.056091 0.097280 0.060170 0.283838 -0.108377 -0.047939 -0.018885 0.057853 -0.010527 -0.017216 0.126552 -0.206102 -0.043975 -0.206956 -0.097112 -0.174483 -0.018836 0.027503 0.127206 0.089243 -0.096335 0.058876 0.272199 0.087369 -0.164014 -0.039838 -0.133099 -0.103138 -0.287451 -0.141738 0.105938 0.333729 -0.423463 0.059565 0.043270 -0.034226 0.420031 0.274051 -0.123924 0.111485 -0.109287 -0.525609 -0.048919 -0.112233 -0.209719 0.121289 -0.327415 0.230283 0.164094 -0.016386 0.094027 0.064936 0.085757 0.078472 0.137562 0.139852 0.171373 -0.079611 -0.079891 -0.125377 -0.218662 0.114696 0.103071 -0.113001 -0.458676 0.043037 -0.037980 0.134998 -0.078324 0.143484 0.126298 0.228224 0.117820 0.112980 -0.085808 0.123241 0.152401 0.020695 0.282775 -0.089327 -0.126972 -0.053959 -0.364648 -0.215124 0.090354 -0.138522 -0.008627 -0.278663 0.068697 -0.011013 0.177636 -0.122634 -0.117753 -0.103215 -0.093186 0.314441 0.080038 0.224385 -0.480835 0.106703 -0.068037 -0.180333 0.036586 -0.087735 -0.184979 -0.182019 0.010516 -0.314083 0.099636 -0.120375 -0.264112 -0.126598 -0.055834 -0.283729 0.016368 -0.286069 -0.054069 0.205513 0.093422 0.190059 -0.193137 0.209956 -0.176669 0.040021 -0.135403 0.057516 0.138823 -0.049001 -0.202537 -0.048130 -0.252055 0.046528 0.039701 0.033828 -0.330835 -0.392423 -0.435396 0.148942 0.070537 -0.348747 0.264882 0.135004 -0.221208 0.158715 0.130913 -0.005306 -0.309012 0.041770 -0.157037 -0.018507 0.095778 0.023439 0.221666 -0.075586 0.538085 -0.068374 0.060644 0.248661 0.280318 0.247128 -0.306854 0.234519 0.043767 0.232160 -0.170549 0.045320 -0.064197 0.317559 0.023879 -0.162952 0.029105 0.110830 -0.010462 0.040282 0.021385 -0.002205 -0.057894 0.087590 0.062549 -0.271455 0.145372 0.384088 -0.072269 -0.009840 0.187295 -0.163662 0.003784 -0.236487 0.231223 0.266773 -0.059124 -0.360101 -0.367098 0.103830
将 0.281810 0.064493 -0.123748 0.520074 0.097024 0.048876 -0.087775 -0.027692 0.257236 0.254421 0.132292 -0.266455 -0.039219 -0.045737 -0.240209 -0.099212 0.163549 -0.130568 -0.322488 -0.109333 -0.379130 -0.041465 -0.297291 0.259633 0.052255 0.063511 0.023491 0.136101 -0.019541 -0.054061 0.109962 0.146427 0.032522 0.102437 -0.286087 -0.425873 0.174983 0.057913 -0.390396 0.109335 -0.007594 -0.080186 0.739336 0.229162 -0.002874 -0.095846 -0.513369 -0.535609 -0.315925 -0.387208 -0.432137 0.162639 -0.260591 0.130619 -0.204840 -0.283447 0.065495 0.270625 0.053384 -0.137002 0.080861 0.170653 -0.019431 -0.079340 -0.060393 -0.078466 -0.110040 0.030231 0.058188 0.099045 -0.118379 -0.004932 0.318865 0.277012 -0.216574 -0.360994 -0.016325 0.207374 0.121781 0.078109 0.014311 -0.039755 0.074220 0.690344 0.308200 -0.199682 -0.220344 -0.122029 -0.311424 -0.310257 -0.063355 -0.157905 0.059720 -0.014615 -0.030218 0.394605 0.119457 -0.021089 -0.090684 0.221138 -0.112045 0.282040 -0.018774 0.074277 -0.067020 0.386212 0.070603 -0.278088 0.022965 -0.124257 -0.111814 -0.372685 -0.082650 -0.098775 0.024695 -0.221432 0.077805 0.109635 -0.030821 -0.224446 0.165961 -0.367002 0.001133 -0.087364 -0.229873 0.257056 -0.223977 0.084354 0.100887 0.141555 -0.162599 0.057340 0.168639 0.043827 -0.409844 -0.182340 0.253484 -0.276015 0.062053 0.070933 -0.007992 -0.245947 -0.506249 -0.051830 -0.218214 -0.041798 0.166418 0.219737 -0.067903 -0.036934 0.045581 -0.043472 -0.257088 -0.111371 -0.087195 0.107775 0.197515 0.122347 0.117550 -0.232516 0.359532 -0.037545 0.187309 0.288661 0.175941 -0.231413 -0.098225 0.015567 0.084971 -0.012856 -0.085880 -0.076353 -0.135061 -0.153815 -0.012357 -0.075266 0.065845 0.250591 0.046143 0.192476 -0.080126 0.190112 -0.389112 0.418000 -0.028492 -0.063519 -0.025962 0.055274 -0.002503 0.152655 0.271019 0.165148 0.361824 -0.235968 0.269613 0.199821 0.236113 -0.235262 -0.331460 -0.192003
被 0.446075 0.034336 0.230806 0.251356 0.239013 0.069798 0.307916 0.003088 0.535872 0.284332 -0.131339 0.020735 0.020258 -0.204406 -0.237325 -0.019470 -0.106850 -0.391224 -0.295268 -0.134929 0.001383 -0.057327 -0.134480 0.222392 0.272934 0.112387 -0.464189 -0.142328 0.384208 0.092103 -0.094813 0.417285 0.053279 -0.161359 -0.212658 -0.131691 0.000200 0.382925 -0.363686 0.063598 0.200071 0.001222 0.604899 0.107534 -0.124291 0.292222 -0.302560 -0.604264 -0.107000 -0.246372 -0.424534 0.158503 -0.065483 -0.040477 0.134373 -0.200462 -0.015900 0.525818 0.171905 -0.033788 0.164153 0.217117 0.023749 -0.083934 -0.015085 -0.139464 -0.253849 -0.174199 -0.114596 0.030942 -0.271434 -0.149617 0.284256 0.150577 0.093737 -0.197800 0.129469 0.270587 0.228464 0.036732 -0.029614 -0.283951 0.066051 0.197343 0.299552 0.005088 -0.395258 -0.036306 -0.452240 -0.014671 -0.088045 -0.060409 -0.090709 -0.111971 -0.225062 0.093411 0.007876 -0.106909 -0.288831 0.113066 -0.209810 0.471610 -0.097414 0.102583 -0.179692 0.496961 0.258163 -0.162684 0.337698 -0.105265 0.007705 -0.131686 0.027524 -0.124707 0.086358 -0.437665 0.144944 -0.165595 -0.174064 0.064717 0.166044 -0.164201 -0.117698 0.025201 0.073782 0.213478 -0.165789 0.141308 -0.047987 -0.129792 -0.076898 -0.053813 0.359451 -0.304550 -0.453576 -0.229354 -0.105944 0.035041 0.012643 0.010850 -0.246877 -0.309892 -0.332042 0.209007 0.044266 -0.310100 0.171112 0.146423 -0.099773 0.091121 -0.037550 -0.062594 -0.323743 0.010185 -0.141091 0.051607 0.034324 -0.215062 0.113670 -0.505719 0.481963 -0.138317 -0.244059 0.002412 0.117609 -0.137152 -0.148394 0.125965 -0.013274 0.121624 -0.027439 -0.096751 -0.018446 -0.105253 0.176196 -0.108253 -0.019922 -0.086688 0.030771 -0.278951 -0.155450 -0.010486 -0.297666 0.294391 -0.023818 -0.022221 -0.046589 0.291885 0.014365 0.126337 0.098817 0.087570 0.149463 -0.333073 0.136878 0.331993 -0.003017 -0.391755 -0.156848 -0.098174
没有 0.272688 -0.086817 -0.196312 0.342404 0.493423 -0.146033 -0.000569 -0.029512 0.157846 0.154561 0.040703 0.059577 0.015749 -0.004702 0.189891 -0.256561 0.109109 -0.287528 -0.153635 -0.221274 0.012345 0.134674 0.035359 -0.021377 0.226212 -0.011714 -0.066620 0.131457 0.329394 -0.114165 -0.080771 -0.114258 -0.126573 0.039764 -0.274772 -0.182211 0.077945 0.205473 -0.343381 0.038907 0.148458 0.043991 0.567387 0.160987 -0.218077 0.130826 -0.190618 -0.528418 -0.024680 0.064469 -0.425373 0.283559 -0.185922 0.256640 0.019898 -0.114858 0.168925 0.077908 0.114620 0.053457 0.102290 0.269387 0.288467 -0.134127 -0.084824 -0.025392 -0.013366 -0.112067 0.030400 -0.066384 -0.243953 0.033854 0.091699 0.068309 -0.102585 0.241404 0.227996 0.126506 -0.047765 0.164026 -0.107964 0.080413 0.209258 0.203024 0.270495 -0.098346 -0.161982 0.034617 -0.096391 -0.176491 0.288566 0.012773 0.105374 -0.320692 0.192814 -0.058041 0.244468 -0.081765 -0.233938 -0.014502 -0.070737 0.276550 -0.155218 -0.121774 -0.396993 0.015381 0.162256 -0.468534 0.211908 0.034733 0.056929 -0.282555 0.015618 -0.394997 -0.043566 -0.334034 -0.356044 -0.062864 -0.032106 -0.135536 0.124766 -0.440889 0.002356 0.314113 0.205324 0.073599 -0.097956 0.254172 -0.256003 -0.046718 -0.034264 -0.184896 -0.079097 -0.063677 -0.386173 -0.035888 -0.175409 0.019386 -0.176326 -0.109081 -0.353901 -0.321146 -0.235542 0.142089 -0.094578 -0.259824 0.037347 -0.003502 -0.164659 0.124936 0.035061 0.061619 -0.159111 0.098748 0.042018 -0.151134 0.194640 -0.070279 0.042366 -0.311978 0.382665 -0.068706 -0.288641 0.181160 0.375222 0.085469 0.102066 0.148623 0.061232 0.027347 -0.066589 -0.229691 -0.198579 0.040628 0.045553 -0.261018 -0.177399 0.201545 -0.038780 -0.051212 0.052559 0.038811 -0.161982 -0.047704 0.036055 -0.162190 0.071921 0.246052 -0.127292 -0.040572 0.069764 0.073863 0.094029 -0.015217 0.315783 0.304065 0.025648 -0.382688 -0.264088 0.005012
- 0.001480 -0.210600 -0.007730 0.246355 0.515435 0.113909 0.128218 0.474141 0.152972 0.234497 0.212118 0.134230 0.094310 0.081066 0.396715 -0.047912 0.416483 -0.223386 -0.531571 0.255079 -0.075223 -0.367224 0.208858 0.656515 0.297848 -0.211025 -0.082061 -0.158504 0.139298 -0.037210 0.328392 0.075109 -0.125469 0.248704 -0.180517 -0.644471 0.337547 -0.032723 0.100293 -0.263359 0.142655 0.046239 0.529803 0.385806 0.003078 0.085495 -0.183794 -0.533927 0.111683 -0.581984 -0.465875 0.185540 -0.401754 0.282896 0.251878 0.045127 0.013650 0.103153 -0.260231 -0.082229 -0.057713 0.098821 -0.073938 -0.215868 -0.198800 -0.150043 0.130745 0.165396 0.121213 0.345704 0.231097 -0.012520 0.270359 0.252198 -0.164367 -0.140919 -0.152373 0.365410 -0.068760 -0.245341 0.095286 0.241305 0.032599 0.182954 0.138285 -0.145128 0.200224 -0.033821 -0.483188 -0.218916 0.142923 -0.120575 0.186339 0.076633 0.081124 -0.012021 -0.400145 -0.301921 -0.340792 0.190020 -0.394359 0.304995 -0.271914 0.131371 0.232537 0.234265 0.139134 -0.733638 -0.322096 -0.383211 -0.190400 -0.160091 -0.056133 -0.332181 -0.012433 -0.220198 -0.365764 0.069458 -0.214683 -0.228846 -0.048441 -0.456348 0.226648 0.136693 0.077541 0.280583 -0.287016 -0.139457 0.324378 -0.218206 0.210488 0.302121 0.415845 -0.078463 -0.175848 -0.044041 -0.018222 -0.324318 -0.411589 -0.186043 -0.258279 -0.490798 -0.092396 -0.009996 0.104447 0.175775 -0.094436 -0.023959 -0.251201 0.289190 -0.242891 -0.285001 -0.080834 -0.170510 -0.210244 0.295851 0.130720 -0.144525 0.389720 0.102183 0.754074 0.339476 -0.505641 0.109855 0.084116 0.309577 -0.449910 0.250890 0.183224 0.173029 -0.210517 -0.136678 -0.135703 0.223502 -0.135067 0.189097 0.030621 -0.410768 -0.161537 0.088421 -0.009914 -0.148747 -0.279938 0.278645 0.141555 0.070100 -0.188748 0.141028 -0.259756 0.345174 0.436683 -0.152849 0.208947 -0.160071 -0.027854 0.782404 0.061018 -0.146467 -0.112935 0.107228
中 0.189437 0.095696 -0.067776 0.298991 0.391884 0.181727 -0.000079 0.225315 0.133181 0.156755 -0.233169 0.096015 -0.062266 -0.087348 0.004380 -0.168937 -0.006495 -0.026256 -0.095861 -0.092993 -0.356301 0.122771 -0.000618 0.391077 -0.013232 0.051887 -0.358460 -0.131226 -0.034573 -0.221359 -0.051615 0.101341 0.038284 0.031273 0.017550 -0.277538 0.001954 0.157065 -0.225944 -0.009893 -0.111493 -0.156877 0.693197 0.104056 0.038644 -0.021437 -0.379508 -0.484289 0.023798 0.069973 -0.186222 0.018028 -0.467129 0.141906 0.234110 -0.225493 0.076500 0.123512 0.456138 0.167397 0.051885 0.102726 0.422606 0.018240 -0.010021 -0.035441 -0.028526 0.166023 -0.271003 0.037433 -0.216525 -0.027500 0.103747 0.352442 -0.305308 0.314765 0.158815 0.093907 0.362849 -0.242706 0.145084 0.136259 -0.052764 0.057572 0.178376 0.250705 -0.114371 -0.163939 -0.233243 -0.245081 0.200095 -0.026565 0.050791 -0.153028 0.169667 -0.133614 0.077092 -0.142897 -0.241940 0.328346 -0.098747 0.179202 0.205206 0.162746 0.000059 0.418357 0.159405 -0.049353 0.023655 -0.219706 -0.010765 -0.256950 0.127091 -0.280063 -0.011084 -0.481207 -0.218243 -0.264150 -0.113387 -0.212135 0.137969 -0.152223 0.354619 0.093134 -0.027270 0.259798 -0.167221 -0.008478 -0.039837 0.121678 -0.181617 -0.070152 0.465621 -0.466176 -0.719056 -0.084558 -0.040250 -0.089744 -0.013292 0.127345 0.095376 -0.092849 -0.365282 0.042889 0.340580 -0.154558 0.206571 0.057933 0.068071 0.082656 -0.170859 -0.079269 -0.288624 0.049303 -0.255544 -0.046742 0.207530 0.056355 0.041397 -0.118687 0.604212 -0.182125 -0.011561 0.231546 -0.046130 -0.000114 -0.110299 0.072321 -0.024319 -0.069801 -0.093400 0.217233 -0.168636 0.065816 -0.050592 0.041724 0.112512 0.316350 -0.102087 -0.030422 -0.103445 0.180403 -0.229723 0.148859 0.021609 -0.002537 0.038518 0.474254 -0.008452 0.034010 0.184652 0.010483 0.257966 0.005716 0.420537 0.134875 0.044280 -0.425781 -0.192842 0.032119
但是 0.294284 -0.369130 0.009742 0.396105 0.334848 -0.094873 0.067129 0.083093 0.069280 0.258568 -0.129523 0.027182 -0.041567 0.017706 0.014770 -0.113082 -0.038847 -0.240427 -0.039247 -0.257454 0.020433 -0.124337 0.037982 0.055148 0.199247 -0.065833 -0.025804 0.092063 0.318686 0.053071 -0.000808 0.000618 -0.063859 0.031061 -0.278979 -0.127805 0.159332 0.247656 -0.468611 -0.011435 0.020834 -0.104852 0.429788 0.290136 -0.193151 0.130684 -0.027015 -0.628363 0.043551 -0.160085 -0.261701 0.113722 -0.385367 0.179731 0.204191 0.080346 0.111246 0.028330 0.163772 0.070814 0.073710 0.092726 0.047962 -0.111585 -0.091587 -0.092846 -0.163291 0.142573 0.126414 -0.077110 -0.527797 0.067966 -0.009205 0.160248 -0.027329 0.273774 0.105731 0.117902 0.163088 0.079275 -0.049967 0.057406 0.046204 0.010795 0.314436 -0.112207 -0.229915 0.062382 -0.287648 -0.184348 0.173043 -0.005167 0.032567 -0.319090 0.047446 0.045359 0.169623 -0.133480 -0.195129 0.022573 -0.109784 0.279241 0.098443 0.074783 -0.383407 -0.077310 -0.055719 -0.181503 0.034583 -0.046649 -0.179220 -0.181786 0.054697 -0.214584 0.174728 -0.125125 -0.159630 -0.257016 0.036097 -0.202487 -0.011306 -0.244968 -0.065164 0.175995 0.174118 0.059008 -0.078517 0.094180 -0.265409 0.025030 -0.115983 0.027670 0.170254 -0.077615 -0.271931 0.070204 -0.231675 0.040529 -0.002081 0.131403 -0.262371 -0.332382 -0.343628 0.109871 -0.008030 -0.320237 0.286384 0.055229 -0.145887 0.090622 -0.047870 -0.062681 -0.348128 0.049964 -0.162368 0.006058 0.087433 0.072728 0.239253 -0.269973 0.595283 -0.073458 -0.057056 0.276246 0.205235 0.240698 -0.221119 0.096909 0.024289 0.163074 -0.111930 0.043041 0.074257 0.263215 0.069932 -0.084609 0.069686 0.130688 -0.039221 -0.008968 0.052470 -0.125855 0.027890 0.040238 0.141363 -0.363887 0.061735 0.401859 0.007924 -0.094026 0.131085 -0.163968 0.090937 -0.187024 0.274181 0.174211 -0.061529 -0.303405 -0.309593 0.128419
从 0.228399 -0.062866 -0.016009 0.155339 0.085071 -0.082206 0.007481 0.129494 0.374959 0.073246 -0.136170 0.014397 -0.157769 -0.178648 -0.041215 0.010866 0.122186 -0.198740 -0.260842 -0.318348 -0.341407 0.317252 -0.019960 0.133111 0.072430 -0.147329 -0.024954 0.049888 -0.002564 -0.245823 -0.120171 0.278144 0.057488 0.276606 -0.343452 -0.293386 0.236579 0.170228 -0.195591 0.022885 0.059738 0.072224 0.316616 0.372283 -0.271353 0.065779 -0.374852 -0.478491 -0.180498 -0.288000 -0.119159 0.096203 -0.375102 0.092337 0.065136 0.051882 0.336771 0.033438 -0.095849 0.065757 -0.109084 0.160651 0.368686 0.269197 -0.132903 -0.321702 -0.232629 -0.052569 -0.322480 -0.044209 -0.025039 0.276378 -0.013115 0.224565 -0.069535 0.317343 0.151871 0.079237 0.210474 -0.123766 0.081734 0.125766 0.047694 0.467535 0.099240 -0.329706 -0.168946 -0.081463 -0.280229 -0.176428 0.388649 -0.096422 -0.037839 -0.235028 0.051236 0.039261 -0.015944 -0.203993 -0.440833 0.105625 0.034508 0.303508 0.008839 0.160152 -0.067429 0.423850 -0.202759 -0.547459 -0.083448 -0.024495 -0.345172 -0.161825 -0.005605 -0.190521 0.194746 -0.186529 0.014306 0.063567 -0.035967 -0.324817 0.062199 -0.390051 -0.117600 -0.232365 -0.176957 0.373706 -0.411290 0.060333 0.047030 -0.031481 -0.229779 -0.034604 0.287511 0.232378 -0.062667 -0.012469 -0.253638 -0.493166 0.049662 -0.191183 -0.234888 -0.171320 -0.360825 0.220481 -0.123920 -0.180936 0.187365 0.214251 0.013958 0.034018 -0.072418 -0.072675 -0.223133 -0.115929 -0.029555 0.031499 0.155943 0.207328 0.177788 -0.156610 0.119300 0.015133 0.025984 0.240356 0.186033 -0.053620 -0.207779 0.185636 -0.047717 0.017336 -0.115564 0.087988 0.155800 0.127320 -0.190744 -0.015327 0.037570 0.276195 0.058656 -0.078202 0.006332 -0.019928 0.031304 0.281121 -0.134507 -0.094145 0.095919 0.480505 -0.312242 0.270662 0.273740 -0.023473 0.005902 0.146257 -0.040417 0.219754 -0.062267 -0.360788 0.011077 0.076088
已经 0.452628 -0.313160 -0.048221 0.361515 0.341555 -0.082974 0.191344 -0.036863 0.078092 0.143984 -0.137279 0.133464 -0.258578 -0.113087 0.126954 -0.099636 -0.032391 -0.191719 -0.255638 -0.337759 0.062224 0.094463 -0.094243 0.164231 0.186157 -0.130004 -0.010969 -0.070775 0.148532 0.165390 -0.216990 0.214647 0.036569 0.036991 -0.231691 -0.201579 0.408064 0.059222 -0.531366 -0.006171 -0.020113 0.130767 0.407317 0.205689 -0.208701 0.237083 -0.185102 -0.579835 -0.122476 -0.077170 -0.394892 0.058596 -0.333505 0.136509 0.091248 0.001540 0.071893 0.295676 0.213974 0.097918 0.133097 0.529802 0.191760 0.171171 -0.124110 -0.133480 0.042163 0.025317 -0.058513 -0.238598 -0.265220 0.067752 0.023136 0.128913 -0.114628 0.151995 -0.020365 0.131307 0.034602 0.098596 0.002633 0.194981 0.026655 0.214353 0.152038 -0.238011 -0.147408 0.129257 -0.104545 -0.260911 0.214076 -0.010733 -0.129942 -0.109461 -0.137688 0.069386 0.165916 -0.325424 -0.133572 0.047063 -0.099206 0.037648 0.106818 0.046422 -0.296150 0.166235 0.030520 -0.283914 -0.038403 -0.030924 -0.057368 -0.276126 0.166033 -0.301888 0.038623 -0.271208 0.001939 -0.341899 -0.014770 0.122247 -0.117546 -0.378838 0.006572 0.003019 0.006640 0.199302 -0.231041 0.297869 0.049522 0.139975 -0.187638 -0.101919 0.198663 -0.099403 0.026325 -0.099339 0.027326 0.174869 -0.052335 0.128350 -0.351656 -0.199623 -0.449054 0.000218 -0.297459 -0.210497 0.188178 0.267197 -0.365918 0.157445 -0.175890 -0.053405 -0.037675 -0.174497 -0.105201 -0.067061 0.394367 0.324039 0.129956 -0.362661 0.446293 0.096150 -0.010657 0.253131 0.116717 -0.160602 -0.025996 0.259529 -0.078052 0.104646 -0.281799 -0.165431 -0.106341 0.001636 -0.076302 -0.275561 0.161550 0.001449 0.046304 0.012213 -0.047434 -0.143149 -0.004937 0.373220 -0.131661 -0.055546 0.074813 0.416406 -0.164113 0.021210 0.217369 0.099078 0.092562 -0.002352 0.179253 0.250591 0.188679 -0.358451 -0.218426 0.075617
要 0.254068 -0.287065 -0.259985 0.323607 0.122673 -0.097956 0.062352 -0.013434 -0.023113 0.045184 -0.112414 -0.096953 0.199673 -0.133170 -0.418532 -0.001050 0.044548 -0.115977 0.076757 -0.049369 0.023168 0.118964 -0.155920 0.103816 0.214523 -0.057741 -0.177515 0.081370 0.333679 -0.038533 -0.029605 0.001244 -0.027942 0.233294 -0.238519 -0.202025 0.118508 0.366424 -0.206176 -0.259227 0.015214 0.003346 0.544806 0.096334 -0.078706 0.082956 -0.366327 -0.606499 -0.092782 0.074378 -0.196622 0.045501 -0.382452 0.241020 0.097538 -0.061471 0.071972 0.168573 0.131317 -0.090241 0.039443 -0.063280 0.051834 -0.043401 0.106051 0.193122 -0.075670 0.039661 -0.105200 -0.318175 -0.173613 0.175129 0.330355 -0.000355 -0.042480 -0.016344 0.243501 0.056677 0.170545 0.076738 -0.025828 0.350376 0.088856 0.446737 0.200198 -0.185726 -0.237929 0.020152 -0.409024 -0.140760 -0.034978 -0.135958 0.226139 0.086765 -0.108044 0.064457 0.251722 -0.148267 -0.203424 -0.053171 0.015090 0.461097 -0.160879 -0.030746 -0.361548 -0.010976 0.219718 -0.527652 -0.119409 -0.169859 -0.020532 -0.216313 0.202461 -0.169386 0.065717 0.054136 -0.037152 -0.142809 0.110440 -0.242397 0.059325 -0.124119 -0.009472 0.031854 -0.106808 -0.069032 -0.189723 0.032688 -0.285479 0.137036 -0.364067 0.163326 0.190010 -0.032417 -0.483798 -0.052936 -0.074634 -0.167121 0.009192 0.112594 -0.140330 -0.351199 -0.254714 -0.154005 -0.173849 -0.257379 0.195778 -0.076875 -0.145440 0.145671 0.150900 -0.014155 0.127869 -0.028731 0.063550 0.058033 0.363404 -0.027144 -0.039612 -0.289701 0.373797 0.007293 0.011847 0.181025 0.371866 -0.049732 0.056656 0.149693 0.266353 0.065865 0.101257 -0.008465 0.080480 0.143570 -0.241721 -0.005885 0.112864 0.119272 0.188787 0.169940 0.103636 -0.177916 -0.050313 0.004007 0.125246 -0.103427 -0.217795 0.376482 -0.140558 -0.049485 0.004157 0.386146 -0.078031 -0.204274 0.162340 0.244907 0.146522 -0.308579 -0.345931 -0.024127
还 0.253782 -0.307431 -0.039748 0.134453 0.178020 0.107305 -0.073382 -0.139914 0.184958 0.223783 -0.128044 -0.073744 0.049507 0.034790 -0.029998 -0.199411 0.095052 -0.419861 -0.140718 -0.163850 -0.001620 0.007661 -0.245362 -0.200736 0.054209 0.144966 0.296635 0.157349 0.216866 0.009922 -0.011142 0.160132 0.066350 0.400676 -0.489271 -0.283122 0.147746 0.242815 -0.384137 -0.002829 0.253552 -0.037877 0.455295 0.116146 0.065691 -0.124013 -0.282730 -0.668895 -0.094787 -0.133827 -0.246929 -0.025053 -0.063505 0.232507 -0.055917 0.020654 -0.021724 0.115168 0.398325 0.159393 0.058762 0.225367 -0.068222 -0.288235 0.013595 -0.087823 -0.022765 -0.069671 0.029742 -0.042652 -0.204881 -0.134319 0.132901 0.230693 -0.047102 -0.014821 -0.133293 0.207911 0.112635 -0.049064 -0.068137 0.121381 0.037998 0.248322 0.014529 0.017750 -0.256088 0.194832 -0.164039 -0.067083 0.228895 0.085998 0.116906 -0.026176 0.077168 0.001837 0.251615 -0.038433 0.099551 0.160261 -0.034504 0.164164 0.173435 0.049293 -0.508837 0.113349 -0.036450 -0.342110 0.012249 0.067676 -0.035137 -0.076445 0.136680 -0.063865 -0.049060 -0.280398 0.022646 -0.052285 -0.030348 -0.173045 0.315627 -0.117668 0.169582 0.012286 0.153072 0.223489 -0.011993 -0.070358 0.043936 0.027202 -0.176124 -0.009274 0.368453 -0.145136 -0.538405 -0.234983 -0.256963 -0.078662 -0.127633 0.189389 -0.269687 -0.404809 -0.434977 -0.071248 -0.132631 -0.144866 0.265518 0.014565 -0.039473 0.055282 0.071108 -0.229493 -0.109155 -0.172444 -0.099591 0.140390 0.295139 0.147301 -0.041164 -0.247995 0.517877 -0.120353 0.126452 0.158658 0.099055 0.132866 -0.057139 0.272284 -0.041607 0.259391 -0.190528 -0.059258 -0.007131 0.157542 -0.028546 -0.253019 -0.190126 -0.132826 0.142583 0.024775 -0.119497 0.009320 -0.044041 0.241575 0.032997 -0.262275 -0.017953 0.439327 -0.233121 0.077584 0.058301 0.197329 -0.023059 0.080691 0.199245 0.202331 0.168469 -0.376735 -0.486577 0.112335
不 0.206238 -0.284742 -0.265172 0.241002 0.081033 -0.112347 -0.061623 0.009518 0.267310 0.187911 -0.056500 -0.122227 0.125718 -0.204477 -0.120467 -0.230008 0.199854 -0.167478 -0.014468 -0.367650 0.047446 0.221457 0.039697 0.051413 0.172382 -0.088689 -0.112305 0.410821 0.308756 -0.265287 -0.229596 0.000316 0.153431 0.126213 -0.023069 -0.009545 -0.154959 0.178298 -0.212562 -0.117307 0.066704 0.240420 0.461786 0.075043 0.129750 -0.024099 -0.314390 -0.319252 0.065232 0.017128 -0.549869 0.217599 -0.194108 0.182287 -0.025056 -0.001600 0.096747 0.042079 0.206181 0.052502 0.147896 0.146641 0.064148 -0.111421 -0.137711 0.088986 -0.129689 0.080952 -0.033292 0.057270 -0.112765 0.253207 0.093937 0.085406 0.053587 -0.001195 0.115866 0.180739 -0.107910 0.162922 -0.025710 0.225727 0.214225 0.133172 0.624560 -0.180413 -0.009649 0.056409 -0.222878 -0.280898 0.316762 0.045043 0.212677 -0.150176 0.186567 -0.033998 0.097752 0.064313 -0.276287 -0.031751 -0.062139 0.172112 0.134900 0.099136 -0.310823 0.121504 -0.026025 -0.503879 -0.102024 -0.055914 -0.079134 -0.422102 -0.038759 -0.302869 -0.064186 -0.117837 -0.214361 -0.143930 0.031144 -0.166511 0.204795 -0.185754 -0.093117 0.183698 -0.140560 -0.000602 0.005857 0.067168 -0.323452 -0.028039 -0.176796 0.163852 0.098517 0.080303 -0.393054 -0.077259 -0.238063 -0.078128 -0.209096 -0.017117 -0.214348 -0.469052 -0.286502 0.238879 -0.087509 -0.412695 0.195781 -0.159409 -0.037267 -0.019432 -0.045890 -0.068498 -0.176166 -0.035858 -0.000541 -0.151599 0.269455 0.011693 0.073884 -0.291471 0.290228 0.151139 -0.185373 0.057518 0.277086 -0.000554 -0.278260 0.344146 0.212693 0.052414 0.018691 -0.112935 -0.060490 0.371938 0.034656 -0.038737 -0.100613 -0.013431 0.050044 0.265903 0.095789 0.109579 -0.142989 0.160843 -0.053712 -0.050666 -0.291996 0.171883 0.037672 -0.001997 -0.062669 0.119705 -0.055028 -0.194550 0.132207 0.429037 0.113626 -0.363362 -0.230692 -0.142726
后 0.343438 -0.138614 0.218242 0.330354 0.276430 -0.267757 0.046494 0.144527 0.196341 -0.040290 -0.194814 -0.058003 0.113574 0.074256 0.171620 -0.314764 0.127910 -0.311290 -0.140793 -0.327462 -0.025788 -0.041343 -0.119340 0.290010 -0.012304 0.130599 -0.310945 0.095578 -0.012196 -0.158940 -0.020225 -0.123936 -0.096076 -0.006896 -0.169226 -0.117942 -0.101640 -0.038862 -0.357885 0.271781 -0.106249 0.170761 0.629283 0.503512 0.018305 0.135521 -0.213208 -0.595823 -0.056858 -0.205626 -0.184932 0.236046 -0.363469 0.018212 -0.009269 -0.045290 0.224544 0.197419 0.150355 -0.314870 0.181391 0.145019 0.233280 -0.052111 -0.302002 -0.232161 0.007729 -0.175237 0.085258 -0.111900 -0.142011 0.023682 0.149022 0.411186 -0.117247 -0.303583 0.235193 0.182096 -0.029861 -0.147396 0.085035 0.179782 0.298056 0.362033 0.201512 -0.057691 -0.192544 0.017801 -0.325432 -0.301993 0.143710 -0.128468 0.084336 -0.165884 -0.220493 0.321532 0.190383 0.112093 -0.092922 0.146691 -0.064666 0.184407 -0.042811 0.032275 -0.146857 0.361394 0.220996 -0.142930 0.179759 -0.049665 0.047118 0.030383 0.094540 -0.292752 0.175777 -0.083711 -0.322045 0.044718 -0.049684 -0.043238 0.069102 -0.325118 0.063380 0.073695 -0.138486 0.400517 -0.530824 -0.021111 -0.006647 0.009905 -0.220646 0.080999 0.137659 -0.032645 -0.372199 -0.027394 -0.011871 -0.028428 0.043483 0.103120 -0.164741 -0.353043 -0.313787 -0.055647 0.167103 -0.373521 0.301490 0.092421 -0.106487 -0.063949 -0.246264 -0.061268 0.014623 -0.208907 -0.083860 -0.083785 0.220434 -0.161368 0.224866 -0.261811 0.452707 0.163221 0.021924 0.192814 0.189687 0.107485 0.016926 0.311638 0.251412 0.079123 0.026770 0.159108 -0.041674 0.045313 -0.191354 -0.347623 0.105695 0.219339 -0.101096 -0.117371 -0.279295 0.076755 -0.168459 0.286317 -0.161372 -0.203534 0.024080 0.141033 0.097117 0.063158 0.433385 0.061857 0.277733 -0.094771 0.229061 0.091462 0.008085 -0.535186 -0.267756 -0.342616
会 0.187662 -0.140601 -0.084521 0.277536 0.088676 0.002611 -0.080068 -0.119121 0.205303 0.423415 -0.014794 0.036919 0.064606 -0.046571 -0.165940 -0.115836 0.093830 -0.029256 -0.048551 -0.157152 -0.097853 -0.038875 -0.037898 -0.058982 0.117114 -0.019192 -0.037957 0.219309 0.146520 -0.004327 -0.048456 0.046946 -0.159699 -0.115689 -0.184796 -0.318361 -0.099990 0.190091 -0.339987 0.140009 0.125772 -0.132605 0.684076 -0.002267 0.065007 0.044525 -0.338824 -0.518797 0.115910 0.084639 -0.254247 -0.107586 -0.316715 0.160900 -0.009767 -0.110695 0.058503 0.156773 0.151664 -0.111638 -0.076751 0.232703 0.024170 -0.191571 -0.093881 0.042122 0.002836 -0.085471 -0.110737 -0.263291 -0.404057 0.218198 0.552254 0.130964 -0.200825 -0.019570 0.035026 0.071263 0.170919 0.006864 0.054826 0.149402 -0.116352 0.325561 0.369943 -0.125378 -0.071882 0.308257 -0.319659 -0.305118 0.170924 -0.067120 0.124771 0.149716 0.092008 0.212261 0.024862 -0.063056 -0.259749 -0.056240 -0.083210 0.144554 -0.018564 -0.057184 -0.499149 0.010892 -0.108609 -0.621514 0.000851 0.020483 -0.248136 -0.190486 -0.016115 -0.138885 -0.178169 0.133091 0.078497 0.037151 -0.167977 -0.148378 0.009059 -0.445154 -0.041913 0.137862 0.083487 -0.107645 -0.067716 -0.235237 0.095166 0.104774 0.084995 0.241170 0.386736 0.105106 -0.450957 -0.049110 0.117290 -0.118920 0.024361 0.168352 -0.103635 -0.570775 -0.081317 -0.069297 -0.182033 -0.174850 0.001294 -0.017300 -0.003639 -0.024999 0.245337 -0.178291 -0.357256 0.018483 0.147161 -0.129350 0.267382 -0.126856 0.005782 -0.394188 0.474246 -0.123992 -0.026942 0.252712 0.490640 -0.127101 -0.098323 0.356029 0.183207 0.329293 -0.266010 -0.079103 -0.054177 0.134584 0.127853 0.128238 0.265065 -0.089162 -0.031580 -0.140649 -0.123130 -0.164848 -0.057649 -0.054492 -0.000828 -0.260008 -0.069397 0.184858 -0.060823 -0.063155 0.298908 0.287196 0.238486 -0.247897 0.194390 0.266682 0.216015 -0.468259 -0.231399 -0.041704
来 0.169806 -0.139869 0.078729 0.152530 0.076679 0.017727 0.009729 0.205982 0.101349 0.085710 0.055793 0.116360 0.136495 -0.152925 -0.031313 0.073621 -0.174240 -0.131312 0.081180 -0.335335 0.062497 0.065069 0.043710 0.124287 0.081876 -0.057754 -0.243799 0.044955 0.141768 -0.115694 0.056572 0.310906 -0.049563 0.059666 -0.332444 -0.174526 0.002441 0.168035 -0.321502 -0.215431 0.401412 -0.113055 0.530893 0.334622 -0.097599 0.013959 -0.461688 -0.572992 -0.124106 -0.113397 -0.288038 -0.073705 -0.216480 0.316500 0.063761 -0.065281 0.078713 -0.077567 -0.050110 0.015041 -0.084525 0.109644 0.216494 -0.033424 -0.191381 -0.009119 -0.211796 0.138184 -0.099439 -0.054370 -0.307543 0.230047 0.273451 0.343047 -0.082091 0.022628 0.090944 -0.123984 0.265024 -0.012366 0.297938 0.344411 0.091541 0.349111 0.174495 -0.426839 -0.279044 -0.136348 -0.129669 -0.168218 0.154745 -0.203294 0.165816 0.196151 0.126410 0.025391 0.048512 -0.270178 -0.195663 0.062643 -0.060744 0.238861 -0.073653 -0.072594 -0.394813 0.229293 -0.118635 -0.392023 -0.161545 -0.014339 0.048535 -0.181274 0.090544 0.026638 -0.040303 -0.456240 0.017225 -0.059105 -0.027094 -0.013398 0.197003 -0.441068 -0.190682 -0.026694 0.050541 0.142117 -0.020723 0.015811 -0.220147 -0.096909 0.041429 0.003316 0.136281 0.003586 -0.267604 -0.016963 -0.323578 0.005494 0.012388 -0.035732 -0.484470 -0.356109 -0.270150 0.036463 -0.118780 -0.119089 0.040082 0.012749 0.085919 -0.034655 0.255323 -0.043599 -0.037132 -0.197405 -0.096861 0.168634 0.032395 0.204471 0.062325 -0.235950 0.324049 -0.172734 0.182015 0.239812 -0.007874 0.239036 -0.239333 0.182881 0.201367 0.092627 0.236403 0.423344 0.170273 0.085632 -0.004768 0.045051 -0.005085 0.083959 -0.039906 0.362465 -0.050814 0.024379 -0.042987 0.075567 -0.013189 -0.263966 -0.235195 0.061048 0.086621 -0.054851 0.003837 0.118804 0.033815 0.129271 0.192283 0.229330 -0.174434 -0.294124 -0.249004 0.237381
着 0.487985 -0.148360 -0.087261 0.255982 0.055268 0.057940 0.318579 -0.044809 0.186259 0.633051 0.059016 0.029455 -0.178898 -0.184848 0.127435 -0.189625 0.091890 -0.218592 0.403023 -0.254296 -0.097579 0.179062 -0.357375 0.195683 -0.209796 -0.163832 0.032846 0.144470 0.023449 -0.117445 0.088904 -0.050752 -0.048552 0.241375 -0.347062 -0.118274 -0.013228 0.313682 0.022218 -0.402561 0.169679 -0.175387 0.389053 -0.139722 -0.158851 -0.076102 -0.300204 -0.499224 -0.237439 0.053421 -0.214668 0.180658 -0.187855 0.089801 0.221606 -0.030491 -0.292831 0.018970 0.201212 0.048035 -0.159770 -0.161452 0.232329 -0.231885 -0.172753 -0.091187 -0.008728 0.027235 0.063847 -0.308497 0.096071 -0.149577 0.060494 0.399121 -0.121807 0.095390 0.158954 0.304006 -0.038295 0.132925 -0.004915 0.333517 0.085756 0.275994 0.220280 -0.119139 -0.390066 0.016968 -0.396954 -0.025682 -0.022363 -0.181647 -0.249475 -0.167987 -0.049002 -0.346800 -0.008355 -0.252860 -0.273298 0.190112 0.039283 0.215411 0.011253 0.126301 -0.405501 0.064655 0.036262 -0.543163 -0.154093 0.274143 -0.076297 -0.249782 0.035836 -0.026420 -0.149367 -0.597309 0.178795 -0.134472 0.082112 -0.173539 0.135140 -0.193135 -0.313339 0.344894 0.293553 0.188451 0.130907 0.036656 0.281669 0.213221 -0.137781 -0.037555 0.319828 -0.180560 -0.370404 -0.330944 -0.114975 0.110712 -0.265010 0.144036 -0.055542 -0.384044 -0.397302 -0.096281 0.290516 -0.324631 0.249455 0.020208 -0.032302 0.167996 0.050405 -0.071310 -0.049704 0.065526 -0.247717 0.329524 0.125282 -0.199850 0.098787 -0.317058 0.472501 -0.039029 0.147811 0.006601 -0.073429 0.353526 -0.452164 0.151899 -0.072715 0.076369 -0.178923 0.095317 -0.057703 0.035368 0.119641 0.031230 0.085546 0.160512 0.027431 -0.052729 0.006388 -0.141000 -0.084043 0.133820 -0.270289 -0.226710 -0.321576 0.222208 0.051194 -0.247087 0.071316 0.057278 -0.255007 0.189431 0.315485 0.228683 0.074297 -0.068016 -0.028162 0.125111
什么 0.259471 -0.297434 0.031939 -0.087495 0.273416 -0.151321 0.002956 0.067053 0.008771 0.192789 -0.075225 0.067459 0.193833 -0.030812 0.347956 -0.055090 -0.055168 -0.295265 0.074209 -0.303823 0.066665 0.093988 0.102116 0.194244 -0.106603 0.153719 -0.382732 0.133064 0.235343 -0.134361 -0.023745 -0.129184 -0.327885 0.195848 -0.241498 -0.126865 0.108094 0.280288 -0.071612 -0.183935 0.108717 -0.054297 0.130087 0.085747 -0.320680 0.153437 -0.239297 -0.472781 -0.143328 0.043050 -0.428562 -0.042008 -0.496141 -0.068001 0.171900 0.223856 0.098779 -0.039076 0.347619 0.142145 0.086569 -0.082065 0.158558 -0.259227 -0.096630 -0.032847 0.068968 -0.015122 0.259739 0.042344 -0.322245 0.101330 0.169479 0.081968 0.203679 0.365348 0.138500 0.055129 0.074365 -0.042706 0.054818 0.373865 -0.022045 -0.098651 0.303278 -0.227104 0.126904 0.353751 -0.079423 -0.262953 0.161384 0.211632 -0.082903 -0.184443 0.101485 -0.014260 0.402226 0.089770 0.011073 -0.146352 -0.046129 0.057941 -0.021731 0.149619 -0.393518 0.077283 -0.040921 -0.413045 -0.142694 0.111928 0.087684 -0.151664 0.085378 -0.175815 0.170965 -0.285523 -0.059692 -0.191194 -0.148741 -0.303024 0.052943 -0.598954 -0.130135 0.100201 0.083627 0.033757 0.042737 -0.105656 -0.045773 0.094599 0.007608 -0.009474 0.181040 -0.204164 -0.353966 0.007318 -0.221307 -0.075377 0.092866 -0.100837 -0.422837 -0.507082 -0.193833 0.195220 0.119427 -0.158434 -0.037496 0.032585 0.048904 0.296892 0.038350 -0.117097 -0.134861 0.195170 -0.502921 0.200573 0.073576 0.155214 0.147365 -0.121528 0.408173 -0.063213 -0.198443 0.262135 0.011384 0.215874 0.000297 0.205915 0.248749 -0.103725 -0.042796 -0.003684 0.049892 0.099245 0.134149 -0.256295 -0.383310 0.020994 0.006767 0.171519 0.072445 -0.284048 0.052770 -0.207359 -0.182738 0.010233 -0.387157 0.158647 0.014975 0.122191 0.044885 0.092657 -0.181091 -0.017422 0.022197 0.448235 0.079610 -0.217645 -0.294102 0.196885
) -0.368707 0.011539 0.142064 0.101499 0.121838 0.056084 -0.135138 0.181047 -0.111711 0.103382 0.175111 -0.230233 0.084313 -0.218884 0.181247 0.013814 0.119610 0.020424 -0.120893 -0.063228 -0.069847 -0.287250 -0.155405 0.072957 0.125217 0.103507 0.040174 0.147179 0.013315 0.238595 -0.087400 0.390090 -0.155315 -0.032582 -0.258632 -0.545291 0.443142 -0.115782 -0.117974 -0.353857 0.009752 0.169060 0.812679 -0.017522 0.106283 0.230882 -0.111719 -0.330158 0.051958 -0.147272 -0.402183 0.067919 -0.288875 0.643306 0.232242 -0.054534 0.105417 0.397348 -0.068295 0.017588 -0.044153 0.248257 0.103420 0.086222 -0.522935 -0.125645 0.154031 -0.004321 -0.219144 0.307541 -0.131169 0.160584 0.173432 0.419286 -0.079432 -0.127267 0.282501 0.213678 -0.128420 -0.018302 -0.029132 0.286121 -0.187503 0.147255 0.416675 -0.430936 0.093429 -0.152930 -0.348796 -0.386936 0.464362 0.001125 -0.110411 -0.309766 0.036941 0.086947 -0.178283 -0.215823 -0.344671 0.394341 -0.092897 0.408346 -0.186031 0.134065 -0.284913 0.059979 0.442680 -0.199467 -0.139582 -0.274782 -0.255429 -0.077580 -0.131334 -0.234730 -0.012000 -0.365370 0.004613 0.028071 -0.306330 0.298596 -0.298819 -0.162386 0.238622 0.167064 -0.009377 0.465845 -0.247048 -0.034892 -0.023086 -0.161570 -0.170367 0.299167 0.339972 0.062926 -0.278025 -0.127819 -0.175244 -0.137135 -0.253119 -0.336233 -0.246171 -0.393165 -0.402172 -0.087103 0.218558 0.019255 0.221772 -0.052781 0.078843 0.066198 -0.046788 0.055754 -0.009852 -0.111704 -0.034102 0.233508 -0.023299 -0.204319 0.329611 0.333223 0.615138 0.081922 -0.054486 0.149826 -0.278539 0.006420 -0.435750 0.125588 0.356502 -0.221711 0.138498 0.108528 -0.191398 0.092257 -0.312631 -0.125253 -0.206255 -0.090407 0.173497 -0.085898 -0.277082 0.185322 -0.242602 0.222145 -0.033211 0.321454 -0.037268 0.096496 -0.207304 0.097774 0.280086 0.379596 0.160465 -0.218298 -0.005963 0.495691 0.101286 -0.083495 -0.010738 -0.012716
( -0.397816 0.029146 0.146406 0.101136 0.118814 0.031543 -0.132462 0.156693 -0.104107 0.100358 0.190409 -0.214716 0.087559 -0.234961 0.201971 0.050413 0.106427 0.025456 -0.116298 -0.043296 -0.105048 -0.262799 -0.147132 0.058695 0.121782 0.081606 0.039073 0.120098 0.002208 0.250315 -0.083175 0.386291 -0.138430 -0.032767 -0.270804 -0.557040 0.449188 -0.125588 -0.092519 -0.367009 0.033021 0.180677 0.800811 -0.001736 0.100456 0.239382 -0.091417 -0.337990 0.043528 -0.167890 -0.395229 0.063924 -0.297723 0.642084 0.208789 -0.048590 0.150563 0.437985 -0.069959 0.045781 -0.038860 0.241834 0.109062 0.067978 -0.541946 -0.110712 0.179397 -0.015346 -0.220417 0.327753 -0.125538 0.160110 0.177928 0.410396 -0.076329 -0.137379 0.269683 0.234242 -0.130156 -0.014645 -0.033697 0.267301 -0.197973 0.124807 0.423628 -0.433922 0.087498 -0.185025 -0.319135 -0.395800 0.451774 -0.005109 -0.119687 -0.310073 0.036037 0.057975 -0.204497 -0.206976 -0.338716 0.401514 -0.108147 0.395275 -0.178939 0.144565 -0.293582 0.078117 0.465471 -0.195401 -0.136441 -0.276620 -0.281579 -0.085671 -0.134083 -0.234574 -0.016372 -0.368719 0.003206 0.028137 -0.302032 0.293763 -0.303561 -0.178612 0.240244 0.150671 -0.009047 0.461199 -0.235221 -0.044497 -0.021181 -0.173077 -0.170101 0.309219 0.350096 0.052763 -0.284665 -0.129882 -0.212670 -0.141198 -0.245870 -0.309405 -0.245658 -0.391439 -0.378021 -0.083781 0.214573 0.023310 0.222584 -0.079804 0.039615 0.076352 -0.057234 0.038386 -0.010078 -0.106215 -0.073516 0.251098 -0.010958 -0.222341 0.363439 0.316738 0.615713 0.094087 -0.049764 0.164872 -0.262701 0.035922 -0.437711 0.122212 0.371000 -0.203863 0.157050 0.113528 -0.195000 0.074354 -0.291288 -0.142825 -0.218093 -0.111976 0.190019 -0.099716 -0.283390 0.187848 -0.255395 0.226442 -0.021790 0.313487 -0.023239 0.086428 -0.245192 0.113850 0.299802 0.385065 0.153386 -0.226572 -0.015186 0.508740 0.091697 -0.096033 -0.012388 0.009619
